tree
version=v4
num_class=1
num_tree_per_iteration=1
label_index=0
max_feature_idx=25
objective=binary sigmoid:1
feature_names=base_score filing_day_close news_count_24h news_neg_density form_8_K form_6_K form_424B5 form_S_3 form_424B3 form_4 form_NT_10_K form_424B2 form_424B4 form_NT_10_Q form_RW form_424B1 weekday month is_monday is_friday log_close penny_flag midcap_flag largecap_flag sector_unknown cap_unknown
feature_infos=[-9:19] [0.00020000000000000001:716300] none none [0:1] [0:1] [0:1] [0:1] [0:1] [0:1] [0:1] [0:1] [0:1] [0:1] [0:1] none [0:4] [3:4] [0:1] [0:1] [-0.69314718055994529:13.481854352602543] [0:1] [0:1] [0:1] none none
tree_sizes=3386 3444 3465 3446 3443 3450 3397 3422 3418 3433 3413 3440 3411 3401 3414 3409 3401 3403 3415 3427 3437 3445 3466 3478 3452 3432 3448 3420 3423 3430 3387 3411 3451 3445 3422 3423 3412 3420 3430 3443 3424 3440 3417 3431 3437 3417 3432 3442 3456 3435 3407 3405 3422 3388 3431 3422 3437 3428 3488 3412 3412 3405 3458 3441 3441 3418 3391 3416 3426 3413 3436 3453 3428 3441 3419 3429 3428 3419 3424 3401 3404 3437 3417 3418 3431 3453 3382 3392 3398 3400 3417 3411 3410 3400 3421 3394 3391 3387 3415 3385 3409 3439 3453 3441 3438 3472 3438 3440 3427 3426 3414 3440 3431 3440 3426 3452 3416 3421 3425 3434 3390 3381 3440 3397 3385 3406 3441 3391 3398 3407 3444 3422 3436 3484 3434 3424 3428 3445 3427 3456 3446 3430 3448 3442 3453 3429 3417 3402 3412 3416 3457 3426 3467 3444 3436 3439 3432 3428 3435 3408 3434 3438 3446 3427 3456 3440 3417 3404 3414 3418 3404 3411 3443 3447 3458 3443 3405 3401 3457 3421 3425 3399 3405 3400 3428 3423 3408 3421 3402 3430 3420 3417 3422 3389 3394 3433 3427 3479 3450 3497 3423 3429 3409 3412 3417 3444 3448 3421 3453 3451 3426 3434 3439 3398 3401 3389 3386 3398 3406 3389 3409 3495 3458 3441 3449 3425 3424 3415 3422 3436 3388 3404 3409 3425 3412 3445 3436 3433 3438 3413 3409 3437 3430 3441 3449 3408 3412 3402 3428 3445 3437 3445 3470 3456 3439 3422 3415 3427 3447 3387 3426 3408 3410 3425 3425 3430 3417 3432 3433 3422 3411 3404 3431 3433 3421 3410 3412 3406 3403 3411 3460 3415 3388 3441 3409 3420 3432 3441 3464 3426 3418 3414 3417 3404 3424 3435 3421 3423 3416 3393

Tree=0
num_leaves=31
num_cat=0
split_feature=1 1 16 16 0 1 20 16 7 11 11 0 4 8 20 0 16 20 1 1 1 20 0 4 0 1 0 1 0 7
split_gain=233.285 95.1311 84.2912 87.3213 52.3959 38.4062 38.5019 33.8017 40.8836 33.1149 25.0607 24.6249 27.3888 26.6139 24.4758 23.1203 21.9224 29.8005 26.6874 25.7142 20.6114 18.3826 18.2388 14.3929 33.3328 13.8468 13.1155 12.9829 12.9818 12.5427
threshold=9.9350000000000005 0.065200000000000022 3.5000000000000004 1.5000000000000002 15.500000000000002 27.730000000000004 3.1176176927964643 1.5000000000000002 1.0000000180025095e-35 1.0000000180025095e-35 1.0000000180025095e-35 1.5000000000000002 1.0000000180025095e-35 1.0000000180025095e-35 4.5130548730344264 11.500000000000002 3.5000000000000004 -0.089927101607906165 0.48050000000000004 3.1550000000000007 0.40650000000000003 2.3565986714976819 -3.4999999999999996 1.0000000180025095e-35 9.5000000000000018 303.91000000000003 12.500000000000002 59.430000000000014 15.500000000000002 1.0000000180025095e-35
decision_type=2 2 2 2 2 2 2 2 2 2 2 2 2 2 2 2 2 2 2 2 2 2 2 2 2 2 2 2 2 2
left_child=1 -1 3 9 7 6 21 -3 16 11 14 -2 13 26 23 -8 17 18 -9 -18 -6 -4 -19 24 -5 -16 29 28 -25 -13
right_child=2 4 5 10 20 -7 15 8 -10 -11 -12 12 -14 -15 25 -17 19 22 -20 -21 -22 -23 -24 27 -26 -27 -28 -29 -30 -31
leaf_value=-0.26309418838529486 -0.25953059020331898 -0.21054211106660217 -0.27500489319274124 -0.2549340284022964 -0.24446658294929124 -0.207533612195311 -0.30348985241633786 -0.23848692944811414 -0.19791850129477392 -0.28258666429465229 -0.30004186717187975 -0.22731634023761815 -0.247705453410791 -0.26881363463029917 -0.29811150478015835 -0.23912742560321024 -0.23042450693443725 -0.18699730358760791 -0.19618082049733254 -0.19911742180364761 -0.17121910417842845 -0.21666928300300514 -0.24544768544686116 -0.24676596699553716 -0.2864795947335923 -0.25533567642392957 -0.1874464831078847 -0.20908345988581892 -0.29471075647826683 -0.19111948374248788
leaf_weight=84.58519421517849 54.100660309195518 309.42188948392868 9.3450949341058713 162.0970243960619 7.087581753730773 89.731634482741356 20.222415402531624 48.409109562635422 68.578310161828995 25.230334550142288 34.42468486726284 78.333318158984184 83.272142931818962 14.434996694326399 47.395553290843964 15.119293034076689 122.77450606226921 7.8403077274560919 46.754242479801178 64.062951430678368 46.289452761411667 56.044460758566856 252.56683476269245 73.338619619607925 79.740907922387123 16.884245797991753 25.696453750133514 11.561949178576468 9.317656606435774 18.731845915317535
leaf_count=319 203 1078 36 604 26 311 81 176 234 98 137 280 307 55 188 55 441 26 159 219 151 197 928 270 311 63 86 40 37 63
internal_value=-0.235387 -0.222571 -0.250059 -0.256208 -0.219036 -0.226411 -0.243431 -0.221324 -0.226832 -0.239609 -0.267641 -0.235539 -0.229613 -0.218693 -0.264725 -0.276546 -0.230568 -0.236438 -0.217408 -0.219502 -0.180753 -0.22533 -0.243472 -0.260314 -0.265463 -0.287203 -0.212656 -0.247023 -0.252698 -0.219851
internal_weight=1983.39 1058.37 925.023 734.56 973.785 190.463 100.731 920.408 610.986 299.8 434.761 274.569 220.469 137.197 400.336 35.3417 542.408 355.57 95.1634 186.837 53.377 65.3896 260.407 336.056 241.838 64.2798 122.762 94.2182 82.6563 97.0652
internal_count=7179 3757 3422 2742 3438 680 369 3261 2183 1092 1650 994 791 484 1513 136 1949 1289 335 660 177 233 954 1262 915 251 429 347 307 343
is_linear=0
shrinkage=1


Tree=1
num_leaves=31
num_cat=0
split_feature=1 1 16 16 0 5 1 20 16 7 11 5 20 0 16 20 1 1 11 1 5 20 0 0 0 1 10 8 1 10
split_gain=214.637 87.4581 77.6905 80.9121 47.8288 45.1804 35.2394 35.6214 30.8311 37.3757 23.4704 23.5645 28.7542 21.6317 20.0887 27.3753 24.4124 23.5089 20.0654 18.7538 17.1978 16.9908 16.8666 12.3609 12.4807 14.1828 11.9272 11.8372 11.689 11.6436
threshold=9.9350000000000005 0.065200000000000022 3.5000000000000004 1.5000000000000002 15.500000000000002 1.0000000180025095e-35 27.730000000000004 3.1176176927964643 1.5000000000000002 1.0000000180025095e-35 1.0000000180025095e-35 1.0000000180025095e-35 4.5130548730344264 11.500000000000002 3.5000000000000004 -0.089927101607906165 0.48050000000000004 3.1550000000000007 1.0000000180025095e-35 0.40650000000000003 1.0000000180025095e-35 2.3565986714976819 -3.4999999999999996 12.500000000000002 9.5000000000000018 86.405000000000015 1.0000000180025095e-35 1.0000000180025095e-35 38.610000000000007 1.0000000180025095e-35
decision_type=2 2 2 2 2 2 2 2 2 2 2 2 2 2 2 2 2 2 2 2 2 2 2 2 2 2 2 2 2 2
left_child=1 26 3 5 8 18 7 21 -3 14 11 12 27 -9 15 16 -10 20 -2 -6 -16 -4 -17 24 -7 -26 -1 -5 -12 -24
right_child=2 4 6 10 19 23 -8 13 9 -11 28 -13 -14 -15 17 22 -18 -19 -20 -21 -22 -23 29 -25 25 -27 -28 -29 -30 -31
leaf_value=-0.025414805508857104 0.001071395131307668 0.033125111497479244 -0.028848506053795776 -0.0036941263252402209 0.00068941542508051568 0.043094941390976686 0.036003545177820465 -0.056521156203846068 0.0064266390771723662 0.045161533437286537 -0.066946600024874847 -0.034438540358689922 -0.03951449210475378 0.005822479842206886 0.024638550098961449 0.05580208245315977 0.046828406184116461 0.044023230804606892 -0.036139979615140504 0.070522719286435984 -0.0068747497756241607 0.027301406163834373 0.001627267459751152 0.055173168427949372 -0.026875092045849959 0.033139889089357069 0.0097519001946142977 -0.032932352103313911 -0.012888914213935329 -0.039136694905671746
leaf_weight=64.831036701798439 206.75006946921349 310.64010792970657 9.3091231882572156 213.11827951669693 7.0881987214088431 18.743737071752548 90.113142624497414 20.062330260872841 48.44811886548996 68.93681064248085 24.934591859579086 110.90583154559135 51.516188323497772 15.130325108766554 81.924517244100571 7.8895550966262809 47.0066739320755 64.39020898938179 25.106838911771774 46.645897954702377 41.064583778381348 56.228443592786789 241.80462223291397 25.856776058673859 13.094211965799333 10.393347561359404 19.562872618436813 23.777793437242508 9.2352173477411252 10.753996968269346
leaf_count=248 758 1078 36 788 26 64 311 81 176 234 102 431 202 55 289 26 159 219 98 151 152 197 886 86 50 36 71 92 35 42
internal_value=0.00939431 0.0216616 -0.00469566 -0.0106118 0.0250379 0.00535148 0.0179775 0.001656 0.0228511 0.0175926 -0.0216442 -0.018825 -0.0127228 -0.0302975 0.0140178 0.00839728 0.0266017 0.0245921 -0.00309597 0.0614917 0.0141461 0.019012 0.00164909 0.0337456 0.0196535 -4.93708e-05 -0.0172443 -0.00675493 -0.0531181 -0.000255974
internal_weight=1985.26 1060.99 924.276 733.433 976.593 299.945 190.843 100.73 922.859 612.219 433.488 399.318 288.412 35.1927 543.282 355.903 95.4548 187.379 231.857 53.7341 122.989 65.5376 260.448 68.0881 42.2313 23.4876 84.3939 236.896 34.1698 252.559
internal_count=7179 3757 3422 2742 3438 1092 680 369 3261 2183 1650 1513 1082 136 1949 1289 335 660 856 177 441 233 954 236 150 86 319 880 137 928
is_linear=0
shrinkage=0.04


Tree=2
num_leaves=31
num_cat=0
split_feature=11 16 16 21 17 0 7 4 0 12 0 8 0 16 0 22 16 21 4 16 8 22 16 0 0 10 8 0 0 0
split_gain=114.484 71.2288 100.401 83.009 35.7037 34.9874 28.0808 20.4379 17.8385 15.7767 15.709 16.7134 13.8642 13.4401 10.8588 10.2994 10.2284 10.0871 12.1365 9.52263 9.42089 8.77004 8.3716 7.12931 13.1797 6.36061 6.32848 6.72278 6.15283 16.7489
threshold=1.0000000180025095e-35 1.5000000000000002 3.5000000000000004 1.0000000180025095e-35 3.5000000000000004 12.500000000000002 1.0000000180025095e-35 1.0000000180025095e-35 -1.0000000180025095e-35 1.0000000180025095e-35 9.5000000000000018 1.0000000180025095e-35 10.500000000000002 3.5000000000000004 4.5000000000000009 1.0000000180025095e-35 2.5000000000000004 1.0000000180025095e-35 1.0000000180025095e-35 2.5000000000000004 1.0000000180025095e-35 1.0000000180025095e-35 2.5000000000000004 5.5000000000000009 10.500000000000002 1.0000000180025095e-35 1.0000000180025095e-35 13.500000000000002 1.0000000180025095e-35 -1.4999999999999998
decision_type=2 2 2 2 2 2 2 2 2 2 2 2 2 2 2 2 2 2 2 2 2 2 2 2 2 2 2 2 2 2
left_child=1 5 3 6 26 9 7 8 19 10 11 28 -12 -2 20 -10 -8 18 -7 -3 -4 -20 -17 -24 -25 -6 27 -5 29 -1
right_child=13 2 14 4 25 17 16 -9 15 -11 12 -13 -14 -15 -16 22 -18 -19 21 -21 -22 -23 23 24 -26 -27 -28 -29 -30 -31
leaf_value=0.040082809848077647 -0.04618438006219508 -0.015232910553558677 0.038864137759743608 0.0099346129751297051 0.049074893440824531 0.045257909489557248 -0.0052866584431361533 -0.0035781147698633197 -0.038784038898725774 -0.031624811159333091 -0.012371658277955231 -0.0018712945214093221 0.015196985880777444 -0.0094658194236043151 0.018191166790745051 -0.030225655204894914 0.02962444175756259 0.048636032298474782 -0.012813502593596439 0.025387743602819028 0.00152775474575881 0.02459980427799863 -0.030543590324212968 0.0084486795583135297 -0.021986816405668509 0.018480978854202947 -0.01582987601482232 -0.016765936445369493 0.028444346652767596 0.0053083303047381158
leaf_weight=31.482827544212341 61.078223705291748 17.754108354449272 81.031638666987419 251.78515583276749 42.189946636557579 35.057990312576294 23.235218316316605 145.43584127724171 68.119479224085808 9.8331410437822324 45.39425665140152 42.83317705988884 77.932238280773163 22.281311124563217 302.73422692716122 83.83067224919796 29.984218031167984 76.233466416597366 13.338084071874617 17.245650559663773 12.551269650459288 33.884836107492447 28.768754199147224 41.977266550064087 47.699062883853912 16.834848552942276 17.586545005440712 15.156160086393355 222.0061712116003 70.935306072235107
leaf_count=108 244 67 278 908 142 118 86 538 268 38 169 157 278 83 1074 324 105 256 50 61 46 119 111 153 183 60 66 57 775 257
internal_value=0.00901486 0.0110312 0.0053908 -0.00238387 0.0127568 0.0216549 -0.0127083 -0.0159531 -0.0218154 0.0164096 0.0174348 0.0215748 0.00503158 -0.0365984 0.0219826 -0.025283 0.0145661 0.0380071 0.0276936 0.0049316 0.0339257 0.0139859 -0.0205678 -0.0135366 -0.00780398 0.0408023 0.00681624 0.00836172 0.0246666 0.0162821
internal_weight=1986.21 1902.85 1243.92 847.603 343.553 658.931 504.05 450.831 305.395 500.417 490.584 367.257 123.326 83.3595 396.317 270.395 53.2194 158.514 82.2809 34.9998 93.5829 47.2229 202.276 118.445 89.6763 59.0248 284.528 266.941 324.424 102.418
internal_count=7179 6852 4527 3129 1233 2325 1896 1705 1167 1782 1744 1297 447 327 1398 1039 191 543 287 128 324 169 771 447 336 202 1031 965 1140 365
is_linear=0
shrinkage=0.04


Tree=3
num_leaves=31
num_cat=0
split_feature=1 1 16 16 5 16 1 20 7 11 1 5 16 11 1 8 20 1 20 20 1 8 1 1 10 20 1 16 1 5
split_gain=187.085 80.6941 66.8835 68.8129 39.8228 36.5183 32.3654 32.4881 30.1912 20.7942 20.814 25.6263 16.9615 16.4401 16.3117 16.0016 15.6734 12.6366 12.3222 20.6096 14.1034 11.4294 11.2016 11.0339 10.8093 10.6606 33.2121 15.5074 14.827 14.2202
threshold=9.9350000000000005 0.065200000000000022 3.5000000000000004 1.5000000000000002 1.0000000180025095e-35 1.5000000000000002 27.730000000000004 3.1176176927964643 1.0000000180025095e-35 1.0000000180025095e-35 88.415000000000006 1.0000000180025095e-35 2.5000000000000004 1.0000000180025095e-35 0.40650000000000003 1.0000000180025095e-35 2.3565986714976819 303.91000000000003 2.3565986714976819 2.9780741009902076 26.700500000000002 1.0000000180025095e-35 38.610000000000007 0.30350000000000005 1.0000000180025095e-35 -0.58072173407164929 0.71980000000000011 3.5000000000000004 3.1550000000000007 1.0000000180025095e-35
decision_type=2 2 2 2 2 2 2 2 2 2 2 2 2 2 2 2 2 2 2 2 2 2 2 2 2 2 2 2 2 2
left_child=1 24 3 4 13 14 7 16 12 10 11 -5 -7 18 23 -16 -4 -12 -2 -20 21 -21 -11 -3 -1 29 -27 -28 -29 -14
right_child=2 5 6 9 -6 8 -8 -9 -10 22 17 -13 25 -15 15 -17 -18 -19 19 20 -22 -23 -24 -25 -26 26 27 28 -30 -31
leaf_value=-0.025095617764444689 -0.04578135246293457 0.021867040875750657 -0.028623131531834992 -0.0062858587216461518 0.031236354255119347 0.002650493791326672 0.033682225809469141 -0.029765775535155435 0.042241421290553964 -0.063849619711650568 -0.048174978609978547 -0.030702237861802449 0.014054961076835895 -0.033414783263908746 0.039972859489252048 0.0048429943331543684 0.02527332648584768 -0.0074813313688724238 0.023400710448845358 -0.01310951892783461 0.0026035092304175994 -0.063302335529562312 -0.010860879817325347 -0.022498596986077243 0.0083630377854831284 0.062511289018248567 0.0093446818095772044 0.015356630072904611 0.041290659985224333 -0.028355813377331621
leaf_weight=64.75070121884346 7.8328135311603537 43.420809656381607 9.2999920845031721 235.08202558755875 68.402591750025749 146.86042219400406 90.551854833960533 35.082061752676964 69.316760823130608 24.441943734884262 48.906282976269722 96.655642673373222 51.032736256718636 24.77737820148468 274.62535807490349 22.754943907260895 56.488724187016487 16.711432427167892 53.834864750504494 33.211419731378555 103.61521852016449 8.5972312241792661 9.1465553641319257 10.372351408004759 19.647635594010353 27.868329703807831 172.96065385639668 80.36666639149189 64.731871947646141 15.726164966821669
leaf_count=248 31 152 36 875 236 536 311 136 234 102 197 378 182 98 933 82 197 63 190 124 378 35 35 39 71 91 624 286 219 60
internal_value=0.00865138 0.0200704 -0.0045301 -0.0100407 0.00465255 0.023303 0.0164626 0.000825582 0.0174848 -0.0202656 -0.0176199 -0.0134707 0.0143481 -0.00329028 0.0336427 0.03731 0.01734 -0.038079 0.000457207 0.00249437 -0.00535197 -0.0246684 -0.0501513 0.013058 -0.0172998 0.0184944 0.0213123 0.0175179 0.0271298 0.00379336
internal_weight=1987.07 1064.44 922.638 731.215 300.272 980.037 191.423 100.871 628.864 430.944 397.355 331.738 559.547 231.869 351.173 297.38 65.7887 65.6177 207.092 199.259 145.424 41.8087 33.5885 53.7932 84.3983 412.686 345.928 318.059 145.099 66.7589
internal_count=7179 3757 3422 2742 1092 3438 680 369 2232 1650 1513 1253 1998 856 1206 1015 233 260 758 727 537 159 137 191 319 1462 1220 1129 505 242
is_linear=0
shrinkage=0.04


Tree=4
num_leaves=31
num_cat=0
split_feature=1 1 16 16 0 5 1 1 16 7 0 7 4 0 1 1 16 1 1 1 0 5 1 1 0 1 1 1 1 7
split_gain=172.414 74.2972 61.7683 63.7119 40.8108 36.709 29.7643 28.3672 24.2221 30.523 19.7515 19.2634 20.0801 20.4614 16.699 15.7296 15.461 22.795 20.1403 20.1024 15.417 15.3446 13.0189 12.0582 12.2037 11.7257 12.5997 16.325 29.8695 11.2447
threshold=9.9350000000000005 0.065200000000000022 3.5000000000000004 1.5000000000000002 15.500000000000002 1.0000000180025095e-35 27.730000000000004 22.865000000000006 1.5000000000000002 1.0000000180025095e-35 11.500000000000002 1.0000000180025095e-35 1.0000000180025095e-35 -1.0000000180025095e-35 0.40650000000000003 97.245000000000019 3.5000000000000004 0.94550000000000012 0.48050000000000004 3.1550000000000007 -3.4999999999999996 1.0000000180025095e-35 13.210000000000003 59.430000000000014 15.500000000000002 303.91000000000003 88.415000000000006 29.125000000000004 18.895000000000007 1.0000000180025095e-35
decision_type=2 2 2 2 2 2 2 2 2 2 2 2 2 2 2 2 2 2 2 2 2 2 2 2 2 2 2 2 2 2
left_child=1 -1 3 5 8 29 7 22 -3 16 -9 12 13 -5 -6 23 17 18 -10 21 -19 -18 -4 24 -14 26 27 28 -15 -2
right_child=2 4 6 11 14 -7 -8 10 9 -11 -12 -13 15 25 -16 -17 19 20 -20 -21 -22 -23 -24 -25 -26 -27 -28 -29 -30 -31
leaf_value=-0.016658186687258165 -0.0069121461769258491 0.029398106526710571 -0.0094812108385464913 0.0047466861633921982 -0.0010861695233724451 0.029940688623380961 0.032274849601397745 -0.053972879717828971 0.0056579242035905853 0.040482091315239284 0.0060421491540570329 0.0064438886059206201 -0.00098971726838979887 -0.018817186772647116 0.064383442234589805 -0.041834715633574202 0.021924488098036026 0.052971215687114388 0.042183791385350292 0.039569796999873889 -0.00049977570414066748 -0.0077681577278018452 0.027991666799980001 0.035274352411008153 -0.047631669367106944 0.01095189747720245 -0.055840587497019034 -0.014479949419567775 -0.057583290589328102 0.017418933372352882
leaf_weight=84.187433436512947 196.76450568437576 312.86674608290195 21.271579101681709 27.216625243425369 7.1266447305679312 68.548285588622093 90.759538233280182 19.319079026579857 48.551435604691505 69.475985363125801 15.119848906993864 40.867216214537621 73.199146687984467 66.223719954490662 46.972409963607788 17.239402249455452 82.445461347699165 7.9323119372129431 47.78240892291069 64.885231882333755 252.32833644747734 41.163733541965485 45.073849558830261 11.589133635163305 9.2371944785118085 9.5147410184144956 34.400769099593163 77.043354675173759 62.879575490951538 34.933067083358765
leaf_count=319 732 1078 79 100 26 236 311 79 176 234 55 149 270 255 151 69 289 26 161 219 926 152 156 40 37 35 142 295 258 124
internal_value=0.00830279 0.0192503 -0.00436926 -0.00967636 0.022344 0.00445238 0.0157926 0.000778525 0.0203288 0.0156714 -0.0281973 -0.0195426 -0.0222854 -0.0280335 0.0558957 -0.00783876 0.0124408 0.00750776 0.0240223 0.0216842 0.00132645 0.0120534 0.0160148 -0.00123101 -0.0067243 -0.031606 -0.0333277 -0.0293194 -0.0379956 -0.00318465
internal_weight=1986.92 1065.72 921.201 729.657 981.531 300.246 191.544 100.784 927.432 614.565 34.4389 429.411 388.544 277.279 54.0991 111.265 545.089 356.594 96.3338 188.494 260.261 123.609 66.3454 94.0255 82.4363 250.062 240.547 206.147 129.103 231.698
internal_count=7179 3757 3422 2742 3438 1092 680 369 3261 2183 134 1650 1501 1085 177 416 1949 1289 337 660 952 441 235 347 307 985 950 808 513 856
is_linear=0
shrinkage=0.04


Tree=5
num_leaves=31
num_cat=0
split_feature=20 20 19 20 0 0 6 7 20 0 19 0 0 20 7 0 17 20 4 7 20 20 20 19 0 20 0 5 0 0
split_gain=155.507 87.5334 53.5537 48.5261 44.7453 39.2045 29.2053 30.2325 37.5156 23.2208 15.6529 23.8925 14.3838 12.6576 11.8707 30.2299 11.3922 11.0365 12.1975 11.0515 10.8725 21.6553 15.3681 11.426 11.3066 22.6092 17.6433 14.3672 11.226 11.5995
threshold=2.9415400096431843 3.3252677420051766 1.0000000180025095e-35 -0.69214817922860872 15.500000000000002 11.500000000000002 1.0000000180025095e-35 1.0000000180025095e-35 0.024680714768862081 1.0000000180025095e-35 1.0000000180025095e-35 12.500000000000002 7.5000000000000009 2.2788012870984318 1.0000000180025095e-35 1.0000000180025095e-35 3.5000000000000004 3.2037616717135085 1.0000000180025095e-35 1.0000000180025095e-35 2.0470472654834464 0.97831905620514459 2.0822500454472519 1.0000000180025095e-35 12.500000000000002 1.0969428380353528 6.5000000000000009 1.0000000180025095e-35 12.500000000000002 11.500000000000002
decision_type=2 2 2 2 2 2 2 2 2 2 2 2 2 2 2 2 2 2 2 2 2 2 2 2 2 2 2 2 2 2
left_child=3 5 14 16 6 17 7 8 12 -9 11 -7 -5 -6 -3 -16 -1 18 19 -2 21 28 -22 24 25 -23 -27 -28 29 -10
right_child=1 2 -4 4 13 10 -8 9 20 -11 -12 -13 -14 -15 15 -17 -18 -19 -20 -21 22 23 -24 -25 -26 26 27 -29 -30 -31
leaf_value=-0.0030379946427507125 -0.041456711270556237 -0.0069979325671573681 0.029431279077271704 0.010107116096468326 0.063633324186534099 -0.047324507244867191 0.036101059732795815 0.016586904396617665 0.0073656716443259397 0.050299357463504273 0.0261522392279008 0.019997684182746486 0.044293874271209462 0.012888572030590755 -0.018212081601639788 0.060589520059771307 0.032810548162527722 -0.049473751142893443 0.018037787047859702 -0.00089701273356921729 -0.042140700635827602 0.058426990410774537 0.004509949447788205 0.037910642546552575 0.038413378855831459 0.023183214126989857 0.012659181568942364 -0.020907862846303082 0.026429505402737381 -0.014222869036869716
leaf_weight=213.55637250840664 50.426715895533562 324.61117592453957 91.269861832261086 27.894056707620621 44.616984754800797 17.611532613635063 121.65634769201279 69.79253451526165 100.55618451535702 63.072019293904305 21.434061154723167 14.635614424943922 72.340191781520844 10.214195907115935 15.842736944556238 13.68840917944908 14.187984451651571 81.950343772768974 7.8411596268415442 13.645396217703817 10.833771571516989 13.930046826601027 250.14107051491737 49.769650310277939 29.739373654127121 57.835037350654602 36.702796757221222 43.589952424168587 26.644184991717339 64.514067709445953
leaf_count=784 201 1220 313 99 143 70 416 245 361 209 75 52 243 37 60 45 49 333 28 50 42 46 914 168 101 203 131 164 92 240
internal_value=0.00823892 -0.00772325 0.00228542 0.0161252 0.0196197 -0.0291108 0.0177241 0.0152503 0.0122321 0.0328467 0.000340069 -0.0170873 0.0349739 0.0545805 -0.00477381 0.0191025 -0.000671033 -0.0393218 -0.027233 -0.0329653 0.00885454 0.0128068 0.00241989 0.0210125 0.0162044 0.0116381 0.0065335 -0.00559698 0.00283764 -0.00110657
internal_weight=1974.54 652.957 445.412 1321.59 1093.84 207.545 1039.01 917.355 784.49 132.865 53.6812 32.2471 100.234 54.8312 354.142 29.5311 227.744 153.864 71.9133 64.0721 684.256 423.281 260.975 231.567 181.797 152.058 138.128 80.2927 191.714 165.07
internal_count=7134 2447 1638 4687 3854 809 3674 3258 2804 454 197 122 342 180 1325 105 833 612 279 251 2462 1506 956 813 645 544 498 295 693 601
is_linear=0
shrinkage=0.04


Tree=6
num_leaves=31
num_cat=0
split_feature=20 20 1 16 16 5 0 16 5 20 0 1 16 1 1 1 16 1 16 0 20 1 1 0 20 1 20 1 0 20
split_gain=143.401 81.3504 52.3694 49.3353 45.4067 41.4215 36.622 24.752 23.301 23.2817 17.8159 17.6789 29.6436 25.5709 21.0497 17.1056 16.2666 15.4446 14.4785 22.2673 14.0025 17.659 13.785 13.1979 12.1981 16.1968 15.7393 11.9516 11.8594 10.4425
threshold=2.9415400096431843 3.3252677420051766 0.065200000000000022 3.5000000000000004 1.5000000000000002 1.0000000180025095e-35 11.500000000000002 1.5000000000000002 1.0000000180025095e-35 3.5389276024864746 12.500000000000002 1.5550000000000004 3.5000000000000004 0.57050000000000012 2.6600000000000006 0.43800000000000006 2.5000000000000004 1.635 3.5000000000000004 12.500000000000002 2.1938850546504738 12.990000000000002 6.7400000000000011 11.500000000000002 4.5130548730344264 303.91000000000003 3.6035929332822199 0.19450000000000003 9.5000000000000018 3.2037616717135085
decision_type=2 2 2 2 2 2 2 2 2 2 2 2 2 2 2 2 2 2 2 2 2 2 2 2 2 2 2 2 2 2
left_child=2 6 -1 7 10 16 29 8 -3 28 -4 13 -13 27 -14 -12 17 -6 19 -8 22 23 -18 -22 26 -26 -11 -7 -9 -2
right_child=1 3 4 -5 5 11 18 9 -10 24 15 12 14 -15 -16 -17 20 -19 -20 -21 21 -23 -24 -25 25 -27 -28 -29 -30 -31
leaf_value=-0.015342529264049824 -0.026289036871272521 -0.0014435941814592798 0.023091212359548949 0.02823621428565392 0.025928764851485542 0.009579572320252085 -0.045846856044357079 0.041684157010667466 0.034896974585767418 -0.061411028562798904 -0.005070860994261313 -0.02028942623950809 -0.024435499515213288 0.029993514459465832 0.030781035931331809 0.047079425680112322 0.023185676159775719 -0.0022215676169544851 0.025092912519159828 0.019213245966501914 0.0082205844510519245 0.024287797860057161 0.051632799223839315 -0.032927804829664072 -0.043866623570246441 0.0013254579037275825 -0.0062042913172801828 -0.048996799910639738 -0.0048191704320890948 -0.047991763672602661
leaf_weight=81.959436058998108 71.558759167790413 106.86045160889626 324.55981183052063 91.367587640881538 43.62485733628273 9.9669830650091189 17.486732870340347 15.224488064646719 37.329296842217445 8.03497366607189 10.981856435537336 116.30076307058334 14.47353410720825 49.947936117649078 38.578867077827454 99.253423482179642 280.31970004737377 103.07717444002628 21.486467868089676 14.664057463407515 31.336632877588272 57.48028901219368 30.212037906050682 19.395895570516586 49.71610227227211 16.846241489052773 101.11550435423851 10.895814269781111 18.708812534809113 81.148840755224228
leaf_count=311 279 394 1128 313 152 36 70 53 127 33 40 444 55 172 132 329 976 379 75 52 113 202 100 75 204 63 380 43 71 333
internal_value=0.00791857 -0.00743317 0.0154825 0.00220037 0.01753 0.0118832 -0.0281286 -0.00458324 0.00814017 -0.0133312 0.0279413 -0.00202966 -0.00903881 0.0146261 0.0155437 0.0418852 0.0177856 0.00626838 0.000323036 -0.0164883 0.021796 0.00929004 0.0261102 -0.00784354 -0.0191808 -0.0325786 -0.0107889 -0.0218544 0.016641 -0.0380591
internal_weight=1973.91 651.548 1322.37 445.203 1240.41 805.61 206.345 353.836 144.19 209.646 434.795 240.164 169.353 70.8107 53.0524 110.235 565.447 146.702 53.6373 32.1508 418.745 108.213 310.532 50.7325 175.713 66.5623 109.15 20.8628 33.9333 152.708
internal_count=7134 2447 4687 1638 4376 2879 809 1325 521 804 1497 882 631 251 187 369 1997 531 197 122 1466 390 1076 188 680 267 413 79 124 612
is_linear=0
shrinkage=0.04


Tree=7
num_leaves=31
num_cat=0
split_feature=1 1 1 16 16 0 7 16 1 16 1 0 0 4 1 6 0 1 16 0 1 6 1 0 0 1 7 16 1 1
split_gain=132.046 73.916 48.3197 45.6275 40.4611 37.9444 27.892 23.0704 21.6158 21.3347 17.5029 16.8819 16.6027 26.8528 15.7987 14.7904 16.9236 13.0727 11.6496 17.0912 10.5144 10.5005 14.0875 11.0646 13.4843 13.5035 10.3903 11.6165 8.72038 8.66905
threshold=18.895000000000007 27.730000000000004 0.065200000000000022 3.5000000000000004 1.5000000000000002 11.500000000000002 1.0000000180025095e-35 1.5000000000000002 81.450000000000017 2.5000000000000004 4.0050000000000008 12.500000000000002 1.5000000000000002 1.0000000180025095e-35 0.43800000000000006 1.0000000180025095e-35 15.500000000000002 303.91000000000003 3.5000000000000004 12.500000000000002 9.3850000000000016 1.0000000180025095e-35 3.2550000000000003 2.5000000000000004 6.5000000000000009 0.65550000000000008 1.0000000180025095e-35 1.0000000180025095e-35 0.017650000000000002 1.0250000000000001
decision_type=2 2 2 2 2 2 2 2 2 2 2 2 2 2 2 2 2 2 2 2 2 2 2 2 2 2 2 2 2 2
left_child=2 5 28 7 11 26 9 12 -9 10 -6 21 -3 -14 -13 16 29 -10 19 -7 -16 23 -23 -4 25 -25 27 -2 -1 -11
right_child=1 3 4 -5 6 18 -8 8 17 15 -12 14 13 -15 20 -17 -18 -19 -20 -21 -22 22 -24 24 -26 -27 -28 -29 -30 -31
leaf_value=0.0049800242683265437 -0.01948019363152307 -0.022689698558954429 0.0044467839983643193 0.027101985180973159 0.0091279998799263743 -0.037918654572844865 0.031843506597932836 -0.0031409149952379427 -0.038514335033597101 0.018167004241901624 -0.015055884949996733 -0.0048864486018035946 0.028554004803516581 -0.0098367243629602572 0.051416919331595361 0.030889147095775182 0.047141182354470054 0.0012751322454373332 0.024086187033017268 0.018464067956577377 0.016674877138615391 0.018358177897690033 0.061923026879377362 -0.0062574548920953437 0.015103848647084186 0.042405039036666044 -0.010930968881893812 -0.048101418783599845 -0.023234700749610794 0.0053779436639172151
leaf_weight=24.653869211673737 31.96627151966095 22.991253450512886 66.161454424262047 91.42425724864006 96.973634660243988 18.298729673027992 94.3113684207201 133.27590528130531 59.142796441912651 114.55899295210838 92.702247723937035 10.978271991014479 74.341791585087776 46.887950733304024 80.903798207640648 63.669584140181541 18.251796707510948 16.850029513239861 21.530018731951714 14.688739642500876 18.295767486095428 26.773019716143608 22.269718915224075 10.206217691302298 129.02813674509525 69.523250684142113 21.930841192603111 98.36918705701828 57.116669446229935 324.33195072412491
leaf_count=91 124 88 237 313 348 73 321 500 242 402 352 40 258 175 265 218 61 63 75 52 64 93 72 37 453 233 83 408 220 1173
internal_value=0.00760701 -0.00711916 0.0148735 0.00207535 0.0168403 -0.0268168 0.0115075 -0.00445557 -0.0129137 0.00876705 -0.00270861 0.0266771 0.00782184 0.0137466 0.040246 0.0129436 0.0103822 -0.0297898 0.00181129 -0.0130079 0.0452397 0.0219527 0.0389825 0.0187845 0.0232857 0.0361754 -0.0370117 -0.0412835 -0.0147706 0.00874985
internal_weight=1972.41 651.698 1320.71 444.914 1238.94 206.784 804.8 353.49 209.269 710.488 189.676 434.14 144.221 121.23 110.178 520.812 457.143 75.9928 54.5175 32.9875 99.1996 323.962 49.0427 274.919 208.758 79.7295 152.266 130.335 81.7705 438.891
internal_count=7134 2454 4680 1639 4369 815 2875 1326 805 2554 700 1494 521 433 369 1854 1636 305 200 125 329 1125 165 960 723 270 615 532 311 1575
is_linear=0
shrinkage=0.04


Tree=8
num_leaves=31
num_cat=0
split_feature=20 20 1 16 16 5 16 20 1 16 5 1 11 20 20 16 1 20 4 1 5 1 1 17 20 1 1 8 4 1
split_gain=122.187 70.3806 44.6704 41.9748 39.3717 35.9604 21.1879 21.1111 20.5686 27.1063 20.1536 19.4562 19.1612 15.107 14.6294 14.9059 15.4975 14.3786 22.5343 18.4593 13.1584 26.3732 11.0959 10.7737 10.6779 14.3956 9.62653 19.4016 10.0327 11.5363
threshold=2.9415400096431843 3.3252677420051766 0.23950000000000002 3.5000000000000004 1.5000000000000002 1.0000000180025095e-35 1.5000000000000002 3.5389276024864746 1.5550000000000004 3.5000000000000004 1.0000000180025095e-35 2.6600000000000006 1.0000000180025095e-35 -0.52933053658294094 2.1938850546504738 2.5000000000000004 1.635 3.2037616717135085 1.0000000180025095e-35 22.345000000000002 1.0000000180025095e-35 26.135000000000002 6.7400000000000011 3.5000000000000004 4.5130548730344264 303.91000000000003 12.990000000000002 1.0000000180025095e-35 1.0000000180025095e-35 9.9350000000000005
decision_type=2 2 2 2 2 2 2 2 2 2 2 2 2 2 2 2 2 2 2 2 2 2 2 2 2 2 2 2 2 2
left_child=2 12 23 6 -4 14 10 -8 13 -10 -3 -11 17 -7 15 16 -6 18 -2 -20 -19 -22 -17 -1 -9 -26 28 -28 -16 -30
right_child=1 3 4 -5 5 8 7 24 9 11 -12 -13 -14 -15 26 22 -18 20 19 -21 21 -23 -24 -25 25 -27 27 -29 29 -31
leaf_value=-0.0082122935385415038 -0.021366116658311229 -0.0014148397007052733 0.027072687919705452 0.026023812519320479 0.028952067276665928 -0.027848100850447133 0.016112053129092113 -0.010158569879456862 -0.019568539077064132 -0.023772039121453672 0.032359271486513651 0.029338885443804086 -0.050818545536664123 0.027251123128071063 0.009389139475662743 0.023092127326422823 -0.0033729833249827343 -0.041907525524140558 -0.0069008121922570446 0.062087470761389138 0.030775615027175362 -0.04917583806323432 0.048804330459803341 0.035733832616002915 -0.041478785444264268 0.0012267314011111057 0.02245183559317222 -0.037460354001237803 0.012177965309580737 -0.039118207036231367
leaf_weight=149.6147296577692 57.212799340486526 106.82036720216274 404.02093935012817 91.444399923086166 35.719528198242188 8.6269307434558851 33.98870162665844 108.85628245770931 115.94750273227692 14.441764652729033 37.403919860720634 38.621334835886955 40.294298127293587 49.081609398126602 34.475700616836548 256.45114636421204 66.58095683157444 57.998033404350281 13.432831376791002 10.257931500673292 13.176286250352861 11.378091380000113 30.253117427229881 8.506480932235716 48.724549070000648 16.853660255670547 71.77296145260334 8.8994213342666608 10.05357699096203 19.579599946737289
leaf_count=557 223 394 1387 313 123 33 124 413 444 55 127 132 174 169 124 889 244 234 50 34 47 47 100 29 204 63 253 35 36 77
internal_value=0.0073132 -0.00691189 0.0142807 0.00202896 0.0169879 0.0116018 -0.00424909 -0.0123809 -0.00174092 -0.00878256 0.00750683 0.0147118 -0.026314 0.0186802 0.0172616 0.021296 0.00808473 -0.020001 -0.00786783 0.0242754 -0.0316553 -0.00674714 0.0259655 -0.0056384 -0.017993 -0.0306499 0.00634999 0.0154648 -0.00518118 -0.0218856
internal_weight=1970.49 647.842 1322.65 444.092 1164.53 760.505 352.647 208.423 226.719 169.011 144.224 53.0631 203.75 57.7085 533.786 389.005 102.3 163.456 80.9036 23.6908 82.5524 24.5544 286.704 158.121 174.434 65.5782 144.781 80.6724 64.1089 29.6332
internal_count=7134 2447 4687 1638 4101 2714 1325 804 833 631 521 187 809 202 1881 1356 367 635 307 84 328 94 989 586 680 267 525 288 237 113
is_linear=0
shrinkage=0.04


Tree=9
num_leaves=31
num_cat=0
split_feature=20 20 0 16 20 20 16 16 0 5 20 0 16 20 5 10 10 17 16 0 20 0 16 20 20 7 16 20 20 16
split_gain=112.722 65.4505 39.7352 38.729 33.9889 33.8103 35.2902 39.3861 30.4868 25.5959 22.9036 19.8219 19.613 19.5606 18.6067 14.8129 13.7257 24.5071 12.4694 19.2643 10.9111 10.9035 10.0917 10.0408 13.5496 9.7294 11.0732 9.55641 9.21469 9.15739
threshold=2.9415400096431843 3.3252677420051766 15.500000000000002 3.5000000000000004 -0.58072173407164929 -0.26071583477660748 1.5000000000000002 3.5000000000000004 11.500000000000002 1.0000000180025095e-35 0.40778637813216223 7.5000000000000009 1.5000000000000002 3.5389276024864746 1.0000000180025095e-35 1.0000000180025095e-35 1.0000000180025095e-35 3.5000000000000004 3.5000000000000004 12.500000000000002 2.3040838444919243 9.5000000000000018 2.5000000000000004 4.5130548730344264 5.7167118554774383 1.0000000180025095e-35 1.5000000000000002 4.2604919986120899 0.22712763613879824 3.5000000000000004
decision_type=2 2 2 2 2 2 2 2 2 2 2 2 2 2 2 2 2 2 2 2 2 2 2 2 2 2 2 2 2 2
left_child=2 8 4 12 15 -6 -7 9 25 16 -11 -9 14 21 -3 29 17 -8 19 -10 28 -14 -23 -15 -25 26 -2 -16 -4 -1
right_child=1 3 20 -5 5 6 7 11 18 10 -12 -13 13 23 27 -17 -18 -19 -20 -21 -22 22 -24 24 -26 -27 -28 -29 -30 -31
leaf_value=-0.0015406431436282284 -0.023340241945625208 -0.00135901146311078 0.028899158862579141 0.024997473841916619 0.043257591853598558 0.024278649292774596 0.0060256057042401201 0.036205864069336034 -0.042916108198450501 0.025343881670708075 -0.02008548174729545 0.011466196902563116 0.039349462676768705 -0.0097723683218657719 0.0094797866465627951 0.017638415619778375 -0.02152394589151781 0.045242394004670637 0.023395374177785189 0.017808211989544746 0.0037389647244020891 0.02589382726231872 -0.030221930769758546 -0.040307500337021109 0.0011801759518854779 -0.0094634887992885962 -0.048344780960142685 0.050081457933578565 0.064379408292664461 -0.021708622593348732
leaf_weight=133.7356895506382 49.374977588653564 106.80165648460388 22.119103610515594 91.432147145271301 63.77722541987896 316.13503405451775 246.85995364189148 89.797612220048904 17.173247098922733 20.043292641639709 116.23389087617397 124.05008509755135 15.33801609277725 108.67519097030163 18.200345680117607 48.688699901103973 22.919685542583466 27.501259967684746 21.546242848038673 14.688773587346075 9.3393685519695264 8.3661877065896988 10.369608327746391 48.17506317794323 16.857141718268394 21.783431470394135 77.856318831443787 19.212770834565163 32.814356505870819 48.389500170946121
leaf_count=490 196 394 76 313 212 1088 890 303 70 69 447 439 53 413 64 172 87 92 75 52 34 30 41 204 63 83 333 63 105 183
internal_value=0.00702841 -0.0066621 0.0137147 0.00195158 0.0121245 0.0152382 0.0133407 0.00797032 -0.0254481 0.00102804 -0.0132679 0.0219749 -0.00408852 -0.0119313 0.0072155 -0.00173988 0.00760399 0.0101066 0.000495178 -0.0152314 0.0441796 0.0154476 -0.00512191 -0.0173595 -0.0296984 -0.0346877 -0.0388989 0.0310909 0.0508653 -0.00698843
internal_weight=1968.26 645.851 1322.4 443.428 1258.13 1027.32 963.541 647.406 202.423 433.558 136.277 213.848 351.996 207.781 144.215 230.814 297.281 274.361 53.4083 31.862 64.2728 34.0738 18.7358 173.707 65.0322 149.015 127.231 37.4131 54.9335 182.125
internal_count=7134 2447 4687 1638 4472 3627 3415 2327 809 1585 516 742 1325 804 521 845 1069 982 197 122 215 124 71 680 267 612 529 127 181 673
is_linear=0
shrinkage=0.04


Tree=10
num_leaves=31
num_cat=0
split_feature=1 1 11 1 16 16 0 7 1 20 5 0 7 0 5 1 4 16 8 1 1 1 1 16 0 1 1 20 1 0
split_gain=125.294 43.7505 38.1784 40.9039 36.6634 38.3604 34.6017 22.9514 22.8337 19.7654 20.6367 18.3367 18.0187 17.2598 14.6518 12.7894 15.9988 12.4498 12.1449 10.2638 9.63898 13.3843 10.1839 9.45489 9.12481 8.81194 14.3154 8.6124 8.25239 8.33401
threshold=9.9350000000000005 0.23950000000000002 1.0000000180025095e-35 36.330000000000005 3.5000000000000004 1.5000000000000002 12.500000000000002 1.0000000180025095e-35 215.91000000000003 4.5130548730344264 1.0000000180025095e-35 1.5000000000000002 1.0000000180025095e-35 1.0000000180025095e-35 1.0000000180025095e-35 151.60000000000005 1.0000000180025095e-35 1.5000000000000002 1.0000000180025095e-35 14.985000000000001 18.535 25.005000000000006 13.210000000000003 2.5000000000000004 -1.4999999999999998 6.9750000000000005 3.5800000000000005 -0.26526932753800525 113.06250000000001 12.500000000000002
decision_type=2 2 2 2 2 2 2 2 2 2 2 2 2 2 2 2 2 2 2 2 2 2 2 2 2 2 2 2 2 2
left_child=1 -1 4 -4 5 11 7 17 -5 10 18 24 14 25 -13 16 20 -3 -7 -18 22 -22 -6 -19 -2 26 27 -9 29 -16
right_child=2 6 3 8 15 9 -8 13 -10 -11 -12 12 -14 -15 28 -17 19 23 -20 -21 21 -23 -24 -25 -26 -27 -28 -29 -30 -31
leaf_value=-0.0029791525677745206 0.012671377248445677 0.022062779398191307 -0.052669945648225858 0.032391617187081188 0.0095872892183680031 -0.00041283142212860844 0.039253347973003651 -0.0016557522043266345 -0.043280977921060962 -0.035275264019698514 -0.02559013463678397 -0.00054228030626562616 0.047375190385825577 0.051201322441879693 0.004536882777372484 0.04864481593655496 -0.040127592479057554 0.00081208979632938741 -0.029575326593727299 0.0023824006148122088 -0.02778748507881755 0.018040057058108818 0.051210760820084189 0.013596561281456402 -0.024617495368219337 0.051154931454491036 -0.020998667424947933 0.041789629462060579 0.053470482564583643 0.036690410833148411
leaf_weight=160.45538444817066 13.439694181084631 203.46619828045368 48.413806915283203 18.726857304573063 16.039168804883957 209.88074643909931 123.9916920363903 11.488912284374235 8.4542206525802595 57.687641605734825 95.444486007094383 132.23490782082081 18.718192934989929 48.632402196526527 37.828719511628151 15.268611013889311 10.943839877843855 126.18497471511364 24.644367799162865 37.58666804432869 11.314017340540884 60.097840949892998 23.794218614697456 347.68878948688507 39.749214395880699 9.530079707503317 14.923865035176275 18.679015457630161 10.498915165662764 18.841884970664978
leaf_count=593 48 701 212 66 57 782 417 41 35 241 382 487 62 159 135 50 43 461 99 134 46 211 78 1228 153 31 55 62 34 63
internal_value=0.00694924 0.0162545 -0.00395194 -0.0309789 -0.00146805 -0.00579269 0.0196656 0.016508 0.0081543 -0.0138522 -0.0100116 0.00573149 0.0108657 0.0340248 0.00721925 0.0147529 0.0112316 0.0137915 -0.00358985 -0.00782041 0.0195387 0.010496 0.035096 0.0102011 -0.0151354 0.0180862 0.0101389 0.025722 0.022283 0.0156781
internal_weight=1974.65 1065.04 909.608 75.5949 834.013 658.969 904.586 780.594 27.1811 387.657 329.97 271.312 218.123 103.254 199.404 175.044 159.776 677.34 234.525 48.5305 111.245 71.4119 39.8334 473.874 53.1889 54.6219 45.0918 30.1679 67.1695 56.6706
internal_count=7166 3748 3418 313 3105 2486 3155 2738 101 1504 1263 982 781 348 719 619 569 2390 881 177 392 257 135 1689 201 189 158 103 232 198
is_linear=0
shrinkage=0.04


Tree=11
num_leaves=31
num_cat=0
split_feature=20 20 16 16 17 20 20 16 16 20 20 11 20 4 20 20 20 20 20 20 20 20 20 8 5 20 20 5 10 20
split_gain=115.795 62.6358 31.6702 30.5295 22.1035 22.4685 28.8605 28.8606 20.0414 25.0668 18.6357 14.754 13.2563 19.9048 19.8155 12.6188 13.9 13.8773 14.0041 12.5307 11.8182 17.4184 21.5571 12.5249 11.0974 19.0367 11.6192 10.263 9.85467 8.86465
threshold=2.9415400096431843 3.3252677420051766 3.5000000000000004 1.5000000000000002 3.5000000000000004 -0.58072173407164929 -0.26071583477660748 3.5000000000000004 1.5000000000000002 4.5130548730344264 2.2788012870984318 1.0000000180025095e-35 3.2037616717135085 1.0000000180025095e-35 3.0995290101041104 5.453635351590381 4.6985768233588194 4.4647580057869281 4.2891571649739229 2.6397711056108517 0.22712763613879824 2.2299999474124652 2.3565986714976819 1.0000000180025095e-35 1.0000000180025095e-35 3.2632753938642991 3.2737994265703749 1.0000000180025095e-35 1.0000000180025095e-35 2.86391223456822
decision_type=2 2 2 2 2 2 2 2 2 2 2 2 2 2 2 2 2 2 2 2 2 2 2 2 2 2 2 2 2 2
left_child=3 11 8 20 5 -5 -7 29 15 -10 28 12 13 -2 -15 16 17 18 -3 -12 -1 23 -23 -22 26 -26 -14 -18 -6 -8
right_child=1 2 -4 4 10 6 7 -9 9 -11 19 -13 24 14 -16 -17 27 -19 -20 -21 21 22 -24 -25 25 -27 -28 -29 -30 -31
leaf_value=0.012931970085083471 -0.020831445242368813 0.0018857603428812555 0.022097134282407584 -0.0087399633005817677 0.046262215570557708 0.040116738223555493 -0.00051260926941605253 0.019065382517527641 -0.0032023993784915539 -0.033493944056811345 -0.037973123019335919 -0.04767248151131278 -0.051789213487143215 -0.01618833472293383 0.056803505549329343 -0.035558181877763807 0.017729866141686371 -0.0441347081429029 0.049414695767477035 0.023307088154936265 0.035459778259877291 -0.029145915304364878 0.020676839028527787 -0.00049528407031003939 0.026032210215343136 -0.043067662363661309 -0.011867754528159382 0.067791040549571829 0.011211527200586329 0.028467479139451642
leaf_weight=163.55670143663883 56.260537043213844 87.495454147458076 90.871909663081169 124.35481023788452 51.102431654930115 45.599563211202621 367.5151826441288 216.08678476512432 148.07831119000912 61.163678079843521 9.3380091637372988 38.982351988554001 41.429947793483734 10.512937247753145 11.736239209771155 9.4225985258817655 24.351128578186035 8.1773591190576536 10.200454339385031 10.087711468338965 195.69810183346272 16.195753008127213 72.809464693069458 16.798040390014648 12.200044095516207 11.389889746904371 17.081705451011658 8.5923973023891431 18.063104495406151 16.700142621994019
leaf_count=578 223 319 312 463 170 152 1347 752 559 258 37 176 173 40 39 37 87 32 34 36 659 61 253 60 44 48 67 27 64 59
internal_value=0.0066847 -0.0071635 0.00114618 0.0134626 0.00897554 0.00677809 0.00977465 0.00740695 -0.00422634 -0.0121741 0.0277924 -0.0257424 -0.0201577 -0.00824719 0.0231014 0.00699849 0.0101208 0.0029503 0.00729866 -0.00656742 0.021712 0.0264165 0.0113878 0.0326285 -0.0313108 -0.00772581 -0.0405299 0.0323994 0.0373987 0.000817657
internal_weight=1971.85 647.947 448.353 1323.91 858.848 770.256 645.902 600.302 357.481 209.242 88.5913 199.594 160.611 78.5097 22.2492 148.239 138.817 105.873 97.6959 19.4257 465.058 301.501 89.0052 212.496 82.1016 23.5899 58.5117 32.9435 69.1655 384.215
internal_count=7166 2475 1665 4691 3080 2773 2310 2158 1353 817 307 810 634 302 79 536 499 385 353 73 1611 1033 314 719 332 92 240 114 234 1406
is_linear=0
shrinkage=0.04


Tree=12
num_leaves=31
num_cat=0
split_feature=1 1 11 1 0 16 16 1 20 5 0 7 7 16 0 5 1 4 8 1 1 0 16 1 1 20 1 1 1 0
split_gain=108.092 39.6178 33.77 37.3961 31.9183 31.7069 33.6251 20.5586 17.2048 19.389 16.5313 16.6282 16.3869 19.7712 15.2978 13.125 11.6854 14.8596 11.1696 9.67648 9.25612 9.07698 8.9778 8.82695 11.8339 10.267 8.58004 11.6569 9.47149 8.3484
threshold=9.9350000000000005 0.065200000000000022 1.0000000180025095e-35 36.330000000000005 15.500000000000002 3.5000000000000004 1.5000000000000002 215.91000000000003 4.5130548730344264 1.0000000180025095e-35 1.5000000000000002 1.0000000180025095e-35 1.0000000180025095e-35 1.5000000000000002 1.0000000180025095e-35 1.0000000180025095e-35 151.60000000000005 1.0000000180025095e-35 1.0000000180025095e-35 14.985000000000001 0.017650000000000002 13.500000000000002 2.5000000000000004 6.9750000000000005 3.5800000000000005 -0.26526932753800525 18.535 25.005000000000006 13.210000000000003 -1.4999999999999998
decision_type=2 2 2 2 2 2 2 2 2 2 2 2 2 2 2 2 2 2 2 2 2 2 2 2 2 2 2 2 2 2
left_child=1 20 5 -4 12 6 10 -5 9 18 29 15 13 21 23 -12 17 26 -8 -19 -1 -3 -15 24 25 -14 28 -28 -7 -2
right_child=2 4 3 7 -6 16 8 -9 -10 -11 11 -13 14 22 -16 -17 -18 19 -20 -21 -22 -23 -24 -25 -26 -27 27 -29 -30 -31
leaf_value=0.0085796806540763288 0.012070229452354119 0.020157800476802965 -0.050649137569121233 0.030678354338516043 0.048407136953219514 0.0084963074692578008 -0.00019565492503220231 -0.041475778168499712 -0.033223315704190556 -0.024615620313190232 -0.0006314668448254647 0.045290657676604028 -0.0064876579022262017 0.00075207155623904841 0.046594271065587403 0.020987694347172462 0.0461238410886693 -0.03945100422180299 -0.028280547907516489 0.0018765909124282222 -0.020365307379418471 0.047897879870211456 0.012321264019473482 0.048800745824675758 -0.020498159495463294 0.039735547286670114 -0.0261804612622955 0.016804515008390256 0.048562434385257348 -0.0236204642413523
leaf_weight=24.772894904017448 13.441481217741964 260.75179980695248 46.983925938606262 18.790868401527408 49.289223581552505 16.061903417110443 209.5707836151123 8.3059675544500333 56.581109181046486 94.783052355051041 132.14987727999687 18.713905528187752 12.227103158831595 146.5688324868679 49.11176124215126 67.032799005508423 15.222302526235579 10.915269657969473 24.406044811010361 37.548322156071663 56.908382833003998 20.090043649077415 401.17251367866993 9.4964318573474866 14.923966631293295 18.641004115343097 11.169668614864348 59.988428518176079 23.769459515810013 39.541331604123116
leaf_count=91 48 900 212 66 164 57 782 35 241 382 487 62 44 535 162 232 50 43 99 134 220 66 1418 31 55 62 46 211 78 153
internal_value=0.00642793 0.0150657 -0.00373267 -0.0294239 0.0172917 -0.00140949 -0.00544286 0.00787203 -0.0130209 -0.00945371 0.00534551 0.0102177 0.0155979 0.0136849 0.0305063 0.00671273 0.0136878 0.0103231 -0.00323307 -0.00804086 -0.0115891 0.0223051 0.0092325 0.0156418 0.00786931 0.0217971 0.0183419 0.00978786 0.0330096 -0.01451
internal_weight=1968.93 1063.95 904.977 74.0808 982.273 830.896 656.22 27.0968 385.341 328.76 270.879 217.897 932.983 828.583 104.4 199.183 174.675 159.453 233.977 48.4636 81.6813 280.842 547.741 55.2885 45.7921 30.8681 110.989 71.1581 39.8314 52.9828
internal_count=7166 3748 3418 313 3437 3105 2486 101 1504 1263 982 781 3273 2919 354 719 619 569 881 177 311 966 1953 192 161 106 392 257 135 201
is_linear=0
shrinkage=0.04


Tree=13
num_leaves=31
num_cat=0
split_feature=1 20 1 16 16 7 16 20 11 16 20 4 1 1 1 20 20 20 1 20 20 1 5 1 1 17 1 1 5 1
split_gain=100.635 53.7521 30.8455 26.9658 26.3125 18.8377 17.005 22.2499 15.7948 15.5783 15.2671 20.0788 16.6283 11.4657 12.896 12.877 12.9335 11.0254 19.0143 10.5345 13.0535 13.5937 10.4107 17.6977 11.0017 10.1049 9.91225 10.7628 9.42293 8.72804
threshold=18.535 3.3252677420051766 0.065200000000000022 3.5000000000000004 1.5000000000000002 1.0000000180025095e-35 1.5000000000000002 4.5130548730344264 1.0000000180025095e-35 2.5000000000000004 3.2037616717135085 1.0000000180025095e-35 22.345000000000002 233.62000000000003 113.06250000000001 4.4647580057869281 4.2891571649739229 2.2299999474124652 10.500000000000002 2.3565986714976819 2.1300156511195465 5.9450000000000012 1.0000000180025095e-35 26.135000000000002 26.4115 3.5000000000000004 46.32500000000001 53.530000000000008 1.0000000180025095e-35 1.9150000000000003
decision_type=2 2 2 2 2 2 2 2 2 2 2 2 2 2 2 2 2 2 2 2 2 2 2 2 2 2 2 2 2 2
left_child=2 8 -1 6 17 9 13 -8 10 19 11 -2 -13 14 15 16 26 29 -19 20 21 -6 24 -24 -12 -7 -3 -28 -16 -4
right_child=1 3 4 -5 5 25 7 -9 -10 -11 22 12 -14 -15 28 -17 -18 18 -20 -21 -22 -23 23 -25 -26 -27 27 -29 -30 -31
leaf_value=-0.011155493366904972 -0.018382400487796238 0.012955423288897448 0.018677895797390529 0.020531567159891226 0.0041211911876697519 0.021109902608772702 -0.0027433564898202084 -0.031490292708905243 -0.046236234273438689 0.011153652284460592 -0.05032327794029403 -0.0037450505728114096 0.060542447485434865 -0.034183932416518979 0.016967873805164874 -0.042856404065677846 0.047229000050509215 -0.028688606772340541 0.018316257626276703 -0.021568755322413705 0.038816137466187922 -0.02951163115894144 0.025067126503966222 -0.041793589440343192 -0.011375373355101574 0.060087800462273952 -0.049410939116430373 -0.0010985967656964195 0.065030486814568342 0.031747857152663581
leaf_weight=81.50913992524147 61.570061415433884 50.667837023735046 166.7906474173069 90.687556996941566 116.55337063968182 83.126232355833054 147.71088236570358 59.944798201322556 38.80769194662571 522.47673031687737 40.886588394641876 15.07629230618477 10.095507428050039 9.345309376716612 24.388837426900864 8.1376557350158674 10.215134933590887 16.168973654508591 69.519707262516022 35.519828125834465 13.242116391658781 21.99040250480175 12.200377106666567 11.220999762415884 17.027549460530281 11.787457495927809 9.0739133208990079 27.744379535317421 8.5318889915943128 173.41696299612522
leaf_count=311 244 181 578 312 422 287 559 258 181 1857 173 56 33 37 87 32 34 61 242 140 46 85 44 48 67 38 36 102 27 588
internal_value=0.00618507 -0.00663504 0.0125688 0.00118556 0.0141479 0.00987228 -0.00378969 -0.011153 -0.0234361 0.00761103 -0.0179294 -0.00613898 0.0233665 0.00653986 0.00950753 0.00260309 0.00678531 0.0221844 0.00921808 -0.00227761 0.00234838 -0.00139042 -0.0302762 -0.00736502 -0.0392595 0.0265266 0.00158261 -0.0139969 0.0309739 0.0254137
internal_weight=1965.43 653.333 1312.1 446.448 1230.59 804.696 355.761 207.656 206.885 709.782 168.077 86.7419 25.1718 148.105 138.76 105.839 97.7013 425.896 85.6887 187.306 151.786 138.544 81.3355 23.4214 57.9141 94.9137 87.4861 36.8183 32.9207 340.208
internal_count=7166 2511 4655 1665 4344 2875 1353 817 846 2550 665 333 89 536 499 385 353 1469 303 693 553 507 332 92 240 325 319 138 114 1166
is_linear=0
shrinkage=0.04


Tree=14
num_leaves=31
num_cat=0
split_feature=1 1 11 1 16 16 16 17 1 20 5 16 1 1 1 1 1 1 1 8 1 1 8 1 1 5 1 1 20 1
split_gain=93.1095 34.1655 29.8215 34.151 27.6806 29.5985 19.024 19.218 18.5258 14.9639 17.9469 13.6182 13.2599 14.808 14.6404 12.5157 12.2321 12.4414 12.5762 12.8035 11.6901 10.666 10.2632 10.2573 9.98463 9.65359 9.07055 8.96102 9.89634 8.04119
threshold=9.9350000000000005 0.23950000000000002 1.0000000180025095e-35 36.330000000000005 3.5000000000000004 1.5000000000000002 1.5000000000000002 3.5000000000000004 215.91000000000003 4.5130548730344264 1.0000000180025095e-35 3.5000000000000004 1.635 2.6600000000000006 0.48050000000000004 2.0250000000000004 10.500000000000002 17.040000000000003 62.710000000000001 1.0000000180025095e-35 4.9650000000000007 151.60000000000005 1.0000000180025095e-35 0.77050000000000007 49.403500000000008 1.0000000180025095e-35 1.3050000000000004 3.0932500000000003 2.1300156511195465 12.990000000000002
decision_type=2 2 2 2 2 2 2 2 2 2 2 2 2 2 2 2 2 2 2 2 2 2 2 2 2 2 2 2 2 2
left_child=1 -1 4 -4 5 16 -3 11 -5 10 22 12 14 15 -8 -14 -2 -18 19 24 -13 25 29 -16 -19 -6 -25 -15 -29 -7
right_child=2 6 3 8 21 9 7 -9 -10 -11 -12 20 13 27 23 -17 17 18 -20 -21 -22 -23 -24 26 -26 -27 -28 28 -30 -31
leaf_value=-0.0030462400525983501 -0.03911274784256507 0.024913252220212904 -0.048740451401981869 0.029058378752100964 0.0036636431380748587 -0.019186930052607562 -0.016290772054835784 0.033766260328658988 -0.039809088230240465 -0.031319350365503429 -0.023609993425826779 0.013185922533499555 0.0045653283922982499 0.031395103834456664 0.039623568570683727 -0.034918621697046424 0.023099282942102596 0.0029397993890363824 0.015377303691336891 -0.044070401741510563 0.036899693053440701 0.043838959833706011 -0.02711138592603474 -0.00044935186744435226 -0.031581930110421104 0.026026077723441957 0.030610011403059145 -0.0026074675419267969 0.02386351367460764 0.0031118914011898343
leaf_weight=160.16119255125523 8.7204570174217206 315.17198164761066 45.467594876885414 18.838234022259716 117.95467652380466 29.187733426690102 17.767349436879158 61.106302246451378 8.1493858247995359 55.451276317238808 94.057451650500298 146.72541600465775 21.333564698696136 17.79132005572319 34.756002321839333 30.508354902267456 56.262284308671951 107.84152357280254 71.865389332175255 11.351746171712874 42.964729279279709 15.144215971231459 24.165520906448364 36.543538302183151 14.289755523204802 41.051267996430397 24.537567242980003 126.32807621359825 26.482165962457657 180.10653492808342
leaf_count=593 34 1081 212 66 428 111 66 208 35 241 382 514 77 61 116 117 194 396 256 47 144 50 99 131 55 141 84 463 93 671
internal_value=0.00594753 0.0139625 -0.00351769 -0.0279437 -0.00134769 -0.00512682 0.0169826 0.0126882 0.00758329 -0.0122672 -0.00895601 0.0101788 0.00531493 -0.000378152 0.0163683 -0.0188916 0.00499664 0.0066103 0.00200253 -0.00525906 0.0187224 0.0127775 -0.00297662 0.0225287 -0.00132304 0.00956363 0.0123199 0.00532497 0.0021053 -7.43057e-05
internal_weight=1962.08 1062.18 899.905 72.4552 827.45 653.3 902.016 586.844 26.9876 382.969 327.517 525.738 336.048 222.443 113.604 51.8419 270.331 261.611 205.348 133.483 189.69 174.15 233.46 95.8371 122.131 159.006 61.0811 170.602 152.81 209.294
internal_count=7166 3748 3418 313 3105 2486 3155 2074 101 1504 1263 1866 1208 811 397 194 982 948 754 498 658 619 881 331 451 569 215 617 556 782
is_linear=0
shrinkage=0.04


Tree=15
num_leaves=31
num_cat=0
split_feature=1 1 0 16 16 5 16 5 0 1 1 11 5 1 1 1 1 16 0 0 1 8 0 1 1 1 1 1 8 1
split_gain=66.2437 37.4409 24.1658 23.2184 35.2981 23.3908 14.0817 11.7369 19.2231 13.1247 20.0128 10.9444 12.4886 11.5379 10.453 10.1498 15.6547 9.95306 9.61411 11.6205 14.9648 10.8198 10.2728 13.8447 15.8093 8.92708 8.86008 10.2339 10.4707 8.62294
threshold=9.9350000000000005 0.065200000000000022 15.500000000000002 3.5000000000000004 1.5000000000000002 1.0000000180025095e-35 1.5000000000000002 1.0000000180025095e-35 2.5000000000000004 26.4115 24.405000000000005 1.0000000180025095e-35 1.0000000180025095e-35 38.610000000000007 10.625000000000002 30.195000000000004 21.695000000000004 2.5000000000000004 9.5000000000000018 1.5000000000000002 15.205000000000002 1.0000000180025095e-35 10.500000000000002 62.710000000000001 45.511000000000003 14.010000000000002 8.8475000000000019 3.2550000000000003 1.0000000180025095e-35 0.57050000000000012
decision_type=2 2 2 2 2 2 2 2 2 2 2 2 2 2 2 2 2 2 2 2 2 2 2 2 2 2 2 2 2 2
left_child=1 -1 6 4 5 14 26 8 15 10 25 12 -6 -13 -2 16 -5 -8 19 20 -16 -21 -20 24 -24 -10 27 -3 -29 -4
right_child=3 2 29 7 11 -7 17 -9 9 -11 -12 13 -14 -15 18 -17 -18 -19 22 21 -22 -23 23 -25 -26 -27 -28 28 -30 -31
leaf_value=-0.014586750080521158 -0.042942991589558659 0.015264285061269518 0.0086310050019015386 0.034937230210807184 -0.0072016055138191364 0.025369070602618952 0.00085509311409227861 0.028426520519980198 -0.030522343242306245 0.0083070432478138806 -0.05761177275089957 -0.053133182515470105 -0.023367440128281101 0.0019247555821063382 0.033599271780996011 0.056480343238080002 -0.024765851368654834 0.012307419541894477 -0.034962251737840816 0.020612204421456438 -0.019481543931274835 -0.022874504262386908 -0.0007968607846834154 0.02414367045615742 -0.061926891912505638 0.0099524906366067131 -0.017980649961545723 0.034523135215486146 -0.0082394840874065525 0.04994402343966628
leaf_weight=76.93498706817627 8.3530034869909269 198.46523702144623 10.752090796828268 18.365847483277324 281.28271767497063 66.645345970988274 165.86753503978252 40.455457136034966 11.841109633445738 62.481482550501823 14.101561561226843 19.839993700385097 104.83974061906338 8.5079015940427762 9.7557957172393781 12.411474347114561 10.152465879917143 453.7115049213171 20.052784979343414 75.498565405607224 40.078045874834061 9.5613510459661466 24.98494265973568 19.521804496645927 8.2979327142238599 26.215398848056793 8.9952031522989255 99.106274873018265 9.7055208235979062 38.612712383270264
leaf_count=296 33 690 38 62 1089 229 604 138 46 221 64 99 432 34 33 40 42 1599 82 272 156 38 91 69 34 94 33 334 35 130
internal_value=0.00540073 0.0121477 0.014248 -0.00262661 -0.00604591 0.0048413 0.0127787 0.0095041 0.00443324 -0.00401043 -0.0186445 -0.0134669 -0.01164 -0.0371064 -0.00157705 0.0276146 0.0135641 0.00924783 0.000283888 0.0065959 -0.00863356 0.015515 -0.0113337 -0.00187766 -0.0173993 -0.00310012 0.0196448 0.020801 0.0306686 0.0412957
internal_weight=1955.4 1062.15 985.216 893.245 697.22 282.75 935.851 196.025 155.569 114.64 52.1581 414.47 386.122 28.3479 216.104 40.9298 28.5183 619.579 207.751 134.894 49.8338 85.0599 72.8575 52.8047 33.2829 38.0565 316.272 307.277 108.812 49.3648
internal_count=7157 3759 3463 3398 2691 1037 3295 707 569 425 204 1654 1521 133 808 144 104 2203 775 499 189 310 276 194 125 140 1092 1059 369 168
is_linear=0
shrinkage=0.04


Tree=16
num_leaves=31
num_cat=0
split_feature=1 1 0 11 1 16 16 0 4 8 20 16 1 4 1 1 9 5 1 16 1 1 1 1 1 8 1 1 1 4
split_gain=61.1981 34.5764 22.7362 21.505 36.2991 20.3191 30.9677 17.5122 19.6683 14.4057 13.4839 13.0536 10.2481 11.4825 11.0202 14.2671 10.7365 9.71192 11.9404 9.58701 12.2677 8.9068 8.42839 8.21515 9.52294 9.72482 8.21184 8.15693 7.53033 7.25521
threshold=9.9350000000000005 0.065200000000000022 15.500000000000002 1.0000000180025095e-35 36.330000000000005 3.5000000000000004 1.5000000000000002 1.5000000000000002 1.0000000180025095e-35 1.0000000180025095e-35 4.2274144404843446 1.5000000000000002 151.60000000000005 1.0000000180025095e-35 18.535 25.909000000000002 1.0000000180025095e-35 1.0000000180025095e-35 8.0225000000000026 3.5000000000000004 4.9650000000000007 14.985000000000001 13.210000000000003 8.8475000000000019 3.2550000000000003 1.0000000180025095e-35 3.7250000000000005 0.57050000000000012 35.755000000000003 1.0000000180025095e-35
decision_type=2 2 2 2 2 2 2 2 2 2 2 2 2 2 2 2 2 2 2 2 2 2 2 2 2 2 2 2 2 2
left_child=1 -1 11 5 -5 6 7 -2 9 -9 -6 23 13 14 22 -16 -17 19 -19 -13 26 -15 -7 24 -3 -26 -21 -4 -23 -8
right_child=3 2 27 4 10 12 29 8 -10 -11 -12 17 -14 21 15 16 -18 18 -20 20 -22 28 -24 -25 25 -27 -28 -29 -30 -31
leaf_value=-0.014048311642107455 -0.014185372858893978 0.014670702594899833 0.008318997088112073 -0.045618245187193159 0.042268419055056752 0.0092376965685457505 -0.014675948210404815 0.025285647205812053 -0.0042655023515993156 -0.018409544855565695 -0.014387354748897324 0.0079283970585559312 0.04184514864502039 -0.038018775668797307 -0.026020918142634464 0.025808211663175446 -0.013581094400827817 -0.0015099524388055116 0.035799380796257468 0.017890066789641092 0.04273443904971326 0.013630712360027256 0.047363556677308093 -0.017326406692390856 0.033274405825677651 -0.0079387947708059667 -0.017073651248834604 0.048546308558156073 -0.022644343515391397 -0.0025080556022225053
leaf_weight=76.730911403894424 51.214864984154701 198.2796569019556 10.746752947568892 43.506241127848625 12.374716937541963 16.15495702624321 274.863455966115 120.05148382484913 77.603477090597153 12.693055793642996 12.752824857831 285.12269374728203 15.04362779855728 10.834613204002379 16.292137548327446 40.987410679459572 14.321118354797362 177.25047282874584 13.871249735355375 101.42849759757519 30.692354783415794 26.401622444391251 22.820006757974625 8.9991408139467222 98.757113263010979 9.7080256342887861 11.214984461665152 38.173145711421967 12.755221217870711 110.19489492475986
leaf_count=296 196 690 38 210 42 57 1102 415 287 50 51 1015 50 43 68 141 52 645 48 352 102 93 75 33 334 35 41 130 47 419
internal_value=0.0051926 0.0116783 0.0136962 -0.002536 -0.0238797 -0.000727541 -0.0040064 0.00659961 0.0117034 0.0210011 0.0140641 0.0122764 0.0113 0.00819688 0.0153462 0.005862 0.015549 0.00887875 0.00137013 0.0122171 0.0206342 -0.00760739 0.032187 0.0188944 0.0200098 0.0295468 0.0142894 0.0400528 0.00154459 -0.0112093
internal_weight=1951.84 1060.97 984.244 890.866 68.6338 822.232 646.621 261.563 210.348 132.745 25.1275 935.324 175.611 160.567 110.576 71.6007 55.3085 619.58 191.122 428.459 143.336 49.9915 38.975 315.744 306.745 108.465 112.643 48.9199 39.1568 385.058
internal_count=7157 3759 3463 3398 303 3095 2469 948 752 465 93 3295 626 576 393 261 193 2203 693 1510 495 183 132 1092 1059 369 393 168 140 1521
is_linear=0
shrinkage=0.04


Tree=17
num_leaves=31
num_cat=0
split_feature=1 1 0 11 1 7 16 16 5 16 0 20 5 1 20 0 7 1 4 1 1 0 1 0 5 1 1 16 1 1
split_gain=56.522 31.9441 21.4062 20.1282 34.2927 18.824 18.7952 28.6099 16.5943 16.5085 12.9698 12.4909 11.4696 10.912 10.1832 10.8786 14.0857 9.57765 10.6597 10.237 13.2434 8.41945 8.31596 8.17728 15.8184 7.86576 7.72956 7.50615 7.50157 13.6022
threshold=9.9350000000000005 0.065200000000000022 15.500000000000002 1.0000000180025095e-35 36.330000000000005 1.0000000180025095e-35 3.5000000000000004 1.5000000000000002 1.0000000180025095e-35 1.5000000000000002 1.0000000180025095e-35 4.2274144404843446 1.0000000180025095e-35 12.025000000000002 2.9780741009902076 1.5000000000000002 1.0000000180025095e-35 151.60000000000005 1.0000000180025095e-35 18.535 25.909000000000002 8.5000000000000018 14.985000000000001 4.5000000000000009 1.0000000180025095e-35 13.210000000000003 0.57050000000000012 2.5000000000000004 71.165000000000006 26.4115
decision_type=2 2 2 2 2 2 2 2 2 2 2 2 2 2 2 2 2 2 2 2 2 2 2 2 2 2 2 2 2 2
left_child=1 -1 5 6 -5 9 7 8 13 -3 -7 -6 -9 -2 -15 -16 -17 18 19 25 -21 -14 -20 -22 -25 -8 -4 -11 29 -10
right_child=3 2 26 4 11 10 17 12 28 27 -12 -13 21 14 15 16 -18 -19 22 20 23 -23 -24 24 -26 -27 -28 -29 -30 -31
leaf_value=-0.013529750687101641 -0.030842099548182667 0.017600444542439884 0.0080184030301151295 -0.044670943721405731 0.040660152857247542 0.013782493441132001 0.0088885231204637715 -0.006543573454074557 0.032243748866360104 -0.0019367528569518816 0.042370158614941193 -0.01389253613762201 -0.00016712770361585179 0.019682792639001183 -0.023060412126173078 -0.0012871741017138078 0.044875185617180298 0.040491817295147323 -0.036835694623609617 -0.025198191237136493 0.039071726428503976 -0.027965906289807926 0.0014731944638766731 -0.021122357470723059 0.028009037380573511 0.045746320631560353 0.047225832320369802 0.0085622582386329135 0.044202232363441223 -0.010359872376191973
leaf_weight=76.527470529079437 15.382634192705153 283.20648349821568 10.741243988275526 42.68950842320919 12.388841807842256 53.615325942635536 16.157233744859695 280.3161950558424 27.455766826868057 149.34921413660049 49.842143893241882 12.715162858366964 22.108895286917686 44.241088137030602 30.003571629524231 94.317511156201363 10.904813408851622 14.959679216146467 10.768746361136435 16.185945749282837 15.0900452286005 81.623413011431694 39.177165105938911 18.712124556303024 21.448095068335533 22.71903383731842 37.708275139331818 398.62792183458805 18.951115250587463 20.059497281908989
leaf_count=296 59 982 38 210 42 187 57 1089 93 547 167 51 89 154 119 351 36 50 43 68 51 343 140 69 73 75 130 1412 63 73
internal_value=0.00499757 0.011232 0.0131713 -0.00244287 -0.023226 0.011799 -0.000699664 -0.00385588 0.00633973 0.00977271 0.0278288 0.0135555 -0.0107917 0.000417573 0.00325298 -0.00222729 0.00387433 0.0108812 0.00788321 0.0147832 0.00563246 -0.0220992 -0.00734742 0.0149519 0.00515991 0.031035 0.0388715 0.00570247 0.0234373 0.014415
internal_weight=1947.99 1059.62 983.091 888.376 67.7935 934.641 820.583 645.365 261.316 831.184 103.457 25.104 384.049 194.85 179.467 135.226 105.222 175.218 160.258 110.312 71.4362 103.732 49.9459 55.2503 40.1602 38.8763 48.4495 547.977 66.4664 47.5153
internal_count=7157 3759 3463 3398 303 3295 3095 2469 948 2941 354 93 1521 719 660 506 387 626 576 393 261 432 183 193 142 132 168 1959 229 166
is_linear=0
shrinkage=0.04


Tree=18
num_leaves=31
num_cat=0
split_feature=1 1 0 11 1 16 16 5 16 5 1 1 0 0 1 1 1 4 1 1 9 5 1 17 16 1 1 0 1 1
split_gain=52.1648 29.5152 20.1716 18.856 32.4117 17.4075 26.4862 15.392 11.1349 10.7192 10.1288 9.27551 10.9173 15.5782 12.2752 10.1728 8.95106 9.90427 9.50111 12.3122 9.02411 8.73596 11.0107 13.7207 8.71839 11.4947 8.27836 7.88469 7.77225 7.61058
threshold=9.9350000000000005 0.065200000000000022 15.500000000000002 1.0000000180025095e-35 36.330000000000005 3.5000000000000004 1.5000000000000002 1.0000000180025095e-35 1.5000000000000002 1.0000000180025095e-35 12.025000000000002 14.445000000000002 1.5000000000000002 9.5000000000000018 62.710000000000001 45.511000000000003 151.60000000000005 1.0000000180025095e-35 18.535 25.909000000000002 1.0000000180025095e-35 1.0000000180025095e-35 8.0225000000000026 3.5000000000000004 3.5000000000000004 4.9650000000000007 67.675000000000011 8.5000000000000018 14.985000000000001 3.7250000000000005
decision_type=2 2 2 2 2 2 2 2 2 2 2 2 2 2 2 2 2 2 2 2 2 2 2 2 2 2 2 2 2 2
left_child=1 -1 8 5 -5 6 7 10 -3 -8 -2 -12 -13 -14 15 -15 17 18 -7 -20 -21 24 23 -23 -10 29 -6 -11 -19 -26
right_child=3 2 -4 4 26 16 9 -9 21 27 11 12 13 14 -16 -17 -18 28 19 20 -22 22 -24 -25 25 -27 -28 -29 -30 -31
leaf_value=-0.013030237069740509 -0.0297467900489614 0.017467580068915869 0.037745727850017279 -0.043761240104345227 0.03670949467219977 0.029940703800442187 -0.0062911614225230547 0.022596142035740736 0.0072876323820765636 -0.00016074084725987314 0.028971658676830398 -0.01883097867040838 0.019308156101460569 -0.010917274515610073 0.012826950173486798 -0.060077794285567053 0.039206517682724797 -0.035705582031503952 -0.024403494866954163 0.023852540399161033 -0.012258186134553021 -0.0050067956985929548 0.034080909129560244 0.035056195410642241 0.016758475011426337 0.040873850374015488 -0.0079486521852907416 -0.027085974541905835 0.0014157410785962258 -0.016882756265759444
leaf_weight=76.325213938951492 15.348581388592718 314.60203209519386 47.957965597510338 41.87129008769989 11.448524296283724 38.756941288709641 279.94817915558815 66.301579743623734 284.98665514588356 22.107858091592789 18.791034355759621 36.957737177610397 63.664778396487236 27.550073459744453 24.131247818470001 8.1997179687023145 14.866756975650786 10.698285445570944 16.079272210597992 40.819223493337631 14.351056456565855 163.33843871951103 13.929455921053885 13.921430379152296 101.30775085091591 30.496194675564766 13.621740281581877 80.950384736061096 39.176917761564255 11.217503279447554
leaf_count=296 59 1092 168 210 39 132 1089 229 1015 89 64 145 227 103 87 34 50 43 68 141 52 598 48 47 352 102 54 343 140 41
internal_value=0.00481278 0.0108038 0.0126681 -0.00234881 -0.022598 -0.000667569 -0.0037078 0.00610649 0.0113411 -0.0103928 0.00040281 0.00313445 -5.11084e-05 0.00567283 -0.00890311 -0.0235209 0.0104931 0.00759603 0.0142593 0.0054329 0.0144083 0.00820526 0.00108793 -0.00168137 0.0113746 0.0194112 0.0130707 -0.0213671 -0.00709214 0.0132856
internal_weight=1943.72 1058.08 981.757 885.641 66.9416 818.7 643.951 260.945 933.799 383.006 194.643 179.295 160.504 123.546 59.881 35.7498 174.748 159.882 110.006 71.2496 55.1703 619.197 191.189 177.26 428.008 143.021 25.0703 103.058 49.8752 112.525
internal_count=7157 3759 3463 3398 303 3095 2469 948 3295 1521 719 660 596 451 224 137 626 576 393 261 193 2203 693 645 1510 495 93 432 183 393
is_linear=0
shrinkage=0.04


Tree=19
num_leaves=31
num_cat=0
split_feature=1 1 20 20 11 16 7 16 20 8 1 16 1 1 20 5 1 1 1 16 1 16 5 1 16 8 16 1 7 20
split_gain=48.2059 27.2711 17.8755 43.75 27.8831 14.9762 20.2608 13.4685 12.8057 13.6315 14.2101 11.3461 17.5207 16.0088 12.9584 9.68417 20.04 9.14358 8.02001 7.98784 7.70289 7.55709 11.8543 9.91702 8.83662 7.40472 7.35602 9.28558 11.9233 7.09349
threshold=9.9350000000000005 0.065200000000000022 3.3252677420051766 3.2037616717135085 1.0000000180025095e-35 1.5000000000000002 1.0000000180025095e-35 3.5000000000000004 2.3565986714976819 1.0000000180025095e-35 17.040000000000003 1.5000000000000002 41.085000000000008 38.610000000000007 3.5389276024864746 1.0000000180025095e-35 26.135000000000002 12.725000000000001 1.2050000000000003 2.5000000000000004 1.0750000000000004 1.0000000180025095e-35 1.0000000180025095e-35 19.435000000000002 3.5000000000000004 1.0000000180025095e-35 2.5000000000000004 17.530000000000005 1.0000000180025095e-35 4.2891571649739229
decision_type=2 2 2 2 2 2 2 2 2 2 2 2 2 2 2 2 2 2 2 2 2 2 2 2 2 2 2 2 2 2
left_child=1 -1 3 4 8 18 19 11 -2 17 -11 29 13 14 -13 -5 -17 -10 20 -7 -3 23 26 -19 -24 -20 27 -23 -29 -4
right_child=2 5 7 15 -6 6 -8 -9 9 10 -12 12 -14 -15 -16 16 -18 21 25 -21 -22 22 24 -25 -26 -27 -28 28 -30 -31
leaf_value=-0.012548994609796979 -0.021285396251152462 0.014410508427991795 0.00091464679940697451 -0.037460620657066096 -0.053737470213225155 -0.0020165711045053302 0.028444178281104168 0.016980346226779863 -0.010013805323618934 0.012016938382190057 -0.044158904778480057 0.016686938991656863 -0.013718013854369618 0.058385991336358231 -0.025632970228867628 0.030295589453524844 -0.043946717157133726 0.038305465620080956 0.025348533936245591 0.00877283908631773 -0.01436743670716401 0.01807955225064482 -0.018403530500374601 -0.00085213331131484297 0.020429961102820235 -0.002109314561615712 0.02073396143609034 -0.029791029291620152 0.024586945054696704 0.019137514320495305
leaf_weight=76.124620676040649 34.935827448964119 107.68287332355976 81.335646569728851 78.667272463440895 14.4147792160511 149.36411641538143 71.10692036151886 92.338291004300117 42.844341024756432 11.438801899552347 16.97671240568161 34.053454369306564 143.54312290251255 8.9329702556133253 16.294504791498184 10.770216539502146 10.532508656382559 28.51728430390358 209.17511047422886 409.96091613173485 16.420951187610626 27.225877091288567 40.60524982213974 15.868928164243696 11.206609979271887 16.825060650706291 75.436166852712631 20.66799832880497 8.3156701922416705 58.082114174962044
leaf_count=296 136 376 298 359 71 547 244 321 160 42 74 128 585 31 66 39 47 96 724 1452 60 96 166 59 39 60 267 82 30 206
internal_value=0.0046315 0.010392 -0.0022658 -0.00786031 -0.00113892 0.012184 0.00847771 0.00351172 0.00128448 0.00398282 -0.0219053 -0.000161053 -0.00618805 0.0119701 0.00275815 -0.031045 -0.00673596 0.00677105 0.0188147 0.00589314 0.0105183 0.00995729 0.00630153 0.0245955 -0.00977627 0.0233041 0.0126553 0.00164034 -0.0138898 0.00858861
internal_weight=1939.66 1056.66 883.004 448.424 348.454 980.536 630.432 434.58 334.039 299.104 28.4155 342.242 202.824 59.2809 50.348 99.97 21.3027 270.688 350.104 559.325 124.104 227.844 183.458 44.3862 51.8119 226 131.646 56.2095 28.9837 139.418
internal_count=7157 3759 3398 1763 1318 3463 2243 1635 1247 1111 116 1314 810 225 194 445 86 995 1220 1999 436 835 680 155 205 784 475 208 112 504
is_linear=0
shrinkage=0.04


Tree=20
num_leaves=31
num_cat=0
split_feature=20 20 1 11 0 7 16 16 1 1 10 17 0 16 0 16 0 1 16 20 1 20 0 1 0 20 1 1 1 6
split_gain=58.9568 46.2182 27.6448 22.6787 20.1912 18.6237 15.7956 17.3641 19.3323 27.0376 15.2065 23.5771 13.2461 12.6673 12.5696 12.3826 11.222 12.8745 10.6143 16.7085 13.8287 11.592 16.2271 12.2404 14.5872 12.8441 11.1016 10.5609 15.8347 13.0821
threshold=2.9415400096431843 3.3252677420051766 0.23950000000000002 1.0000000180025095e-35 11.500000000000002 1.0000000180025095e-35 1.5000000000000002 3.5000000000000004 0.77050000000000007 0.48050000000000004 1.0000000180025095e-35 3.5000000000000004 1.0000000180025095e-35 3.5000000000000004 12.500000000000002 3.5000000000000004 9.5000000000000018 9.7992500000000025 1.5000000000000002 4.5130548730344264 233.62000000000003 4.2891571649739229 11.500000000000002 49.403500000000008 9.5000000000000018 4.1181412705254088 449.71500000000009 16.105000000000004 14.670000000000002 1.0000000180025095e-35
decision_type=2 2 2 2 2 2 2 2 2 2 2 2 2 2 2 2 2 2 2 2 2 2 2 2 2 2 2 2 2 2
left_child=2 4 -1 6 -2 15 -4 8 9 -8 11 27 -7 14 -6 18 -13 -18 20 -20 21 23 -23 24 -3 -25 -21 28 29 -10
right_child=1 5 3 -5 13 12 7 -9 10 -11 -12 16 -14 -15 -16 -17 17 -19 19 26 -22 22 -24 25 -26 -27 -28 -29 -30 -31
leaf_value=-0.0066007375266836331 -0.029703528918876353 0.034966696677326374 0.018172521193998811 -0.049247809061514616 -0.039509839625312619 0.0030880581100800135 -0.0074320166594837936 0.017252283154754484 -0.0036701076172885013 0.04377765315815825 -0.028734317907172017 0.046646988607321214 0.052052569753741874 0.023688648699736751 0.010465485567382714 0.012464020925280863 0.030027865402608656 -0.02447811524468153 -0.0025837784871263463 -0.0342884521964998 -0.042781285166771744 0.0022499343487082739 0.049587268208547808 -0.052194261708618343 -0.0092154001400031917 -0.00021326105113443961 0.018132846193791404 0.022721306096443114 -0.041096012745361725 0.019719672969627632
leaf_weight=158.5306098908186 142.72148874402046 20.797686874866486 394.30280938744545 8.8920745551586133 16.207739323377613 16.861818596720695 26.593254655599594 236.55703270435333 290.26076060533524 41.375132143497467 24.646666496992111 25.075469240546227 17.896386802196503 20.073810219764709 14.504495829343794 84.467771723866463 17.275174587965015 10.250300601124762 128.38921338319778 52.528867244720459 8.4122003018856031 26.416519001126289 19.779525116086006 11.797366425395014 25.773221358656883 18.767777696251869 6.7204283475875846 27.802849963307381 15.201237782835959 43.046703353524208
leaf_count=595 639 72 1379 37 68 63 97 826 1068 138 95 84 59 70 53 296 60 41 496 239 34 96 66 48 95 69 26 102 62 150
internal_value=0.00422571 -0.00581319 0.00903455 0.0111728 -0.0220425 0.00138081 0.0116813 0.00828558 0.00419318 0.0239242 0.00119026 0.00297265 0.0290497 -0.000355363 -0.0163222 -0.00106644 0.0277928 0.00958366 -0.0046726 -0.01076 0.00401314 0.0075233 0.0231393 -0.00200545 0.0108358 -0.0212945 -0.0281402 -0.00056118 -0.00247827 -0.000599364
internal_weight=1951.93 632.116 1319.81 1161.28 193.508 438.609 1152.39 758.085 521.528 67.9684 453.559 428.912 34.7582 50.786 30.7122 403.851 52.6009 27.5255 319.383 187.639 131.744 123.332 46.196 77.1361 46.5709 30.5651 59.2493 376.312 348.509 333.307
internal_count=7223 2489 4734 4139 830 1659 4102 2723 1897 235 1662 1567 122 191 121 1537 185 101 1241 761 480 446 162 284 167 117 265 1382 1280 1218
is_linear=0
shrinkage=0.04


Tree=21
num_leaves=31
num_cat=0
split_feature=20 20 1 11 0 7 16 16 1 1 10 5 0 1 16 0 16 20 16 1 1 20 6 1 0 1 20 1 20 1
split_gain=54.4609 43.0393 25.5304 21.1518 18.9084 17.2516 14.6136 16.0111 17.9258 25.152 14.1074 14.5378 12.294 11.8515 11.7443 11.7734 11.4508 10.4599 10.134 14.9403 13.0762 10.0177 8.60211 14.991 8.48643 8.39414 7.98571 12.0605 9.83362 9.40808
threshold=2.9415400096431843 3.3252677420051766 0.23950000000000002 1.0000000180025095e-35 11.500000000000002 1.0000000180025095e-35 1.5000000000000002 3.5000000000000004 0.77050000000000007 0.48050000000000004 1.0000000180025095e-35 1.0000000180025095e-35 1.0000000180025095e-35 0.94550000000000012 3.5000000000000004 12.500000000000002 3.5000000000000004 3.2037616717135085 2.5000000000000004 233.62000000000003 353.49000000000007 0.024680714768862081 1.0000000180025095e-35 123.37500000000001 8.5000000000000018 81.450000000000017 4.5130548730344264 303.91000000000003 3.6035929332822199 43.285000000000004
decision_type=2 2 2 2 2 2 2 2 2 2 2 2 2 2 2 2 2 2 2 2 2 2 2 2 2 2 2 2 2 2
left_child=2 4 -1 6 17 16 -4 8 9 -8 11 21 -7 -13 15 -6 18 -2 19 22 -21 -10 23 -3 -9 -24 28 -28 -20 -30
right_child=1 5 3 -5 14 12 7 24 10 -11 -12 13 -14 -15 -16 -17 -18 -19 26 20 -22 -23 25 -25 -26 -27 27 -29 29 -31
leaf_value=-0.006343696380928787 -0.017429293665020728 0.0016837337427239958 0.017486052551857187 -0.04780342722381959 -0.038403721944600296 0.0029703719096251316 -0.0071479087886834785 0.025316935982127361 -0.033314979793036381 0.042301619265134593 -0.027732160306894398 0.031472041238678077 0.050152903254256177 -0.01116737670831449 0.022764615879103296 0.010067392898935124 0.011988311772565976 -0.039570618505882373 -0.028398630019183923 -0.056853192080061482 0.0081262627804602437 0.0092506727841990301 0.0047768899165418176 0.033558528854853338 0.0099108380886250985 -0.042363108433470471 -0.049037413540163464 0.0060969637510967754 0.036011440079385663 -0.0062005428410559192
leaf_weight=158.39921893179417 69.907255098223686 147.19180530309677 393.44790367782116 8.8258674889802915 16.039802715182308 16.868179455399513 26.584175318479538 101.11907306313515 8.1689280420541746 41.145601317286491 24.553857699036598 10.385378196835516 17.869638547301292 128.08766543865204 20.093244254589081 14.514260679483412 84.348891064524651 71.388109415769577 23.447953119874001 11.832771956920626 7.7070715427398673 281.95344544947147 11.787903130054476 27.14565771818161 135.20363757014275 11.023461222648619 19.817770287394527 8.8407573997974378 9.6449249237775785 40.015621691942215
leaf_count=595 295 553 1379 37 68 63 97 348 31 138 95 35 59 491 70 53 296 344 96 52 30 1010 44 99 478 47 95 35 35 155
internal_value=0.00406629 -0.00560658 0.00868731 0.0107444 -0.0213448 0.00133046 0.0112346 0.00796757 0.00403502 0.0230709 0.00114529 0.00286036 0.027966 -0.00776673 -0.000348984 -0.0157889 -0.00103015 -0.0288155 -0.00450507 0.000399421 -0.0320756 0.00794184 0.00376372 0.00680997 0.0165818 -0.0188257 -0.0148503 -0.0323971 -0.00762758 0.00254675
internal_weight=1947.36 629.485 1317.87 1159.48 191.943 437.542 1150.65 757.202 520.879 67.7298 453.149 428.595 34.7378 138.473 50.6473 30.5541 402.805 141.295 318.456 216.689 19.5398 290.122 197.149 174.337 236.323 22.8114 101.767 28.6585 73.1085 49.6605
internal_count=7223 2489 4734 4139 830 1659 4102 2723 1897 235 1662 1567 122 526 191 121 1537 639 1241 825 82 1041 743 652 826 91 416 130 286 190
is_linear=0
shrinkage=0.04


Tree=22
num_leaves=31
num_cat=0
split_feature=11 16 16 21 17 0 0 5 8 0 0 12 0 0 8 10 0 0 23 10 0 0 10 17 0 0 6 0 0 0
split_gain=36.6824 19.7234 26.8184 21.5222 21.7833 12.0131 12.2833 11.7723 11.0463 10.8443 8.04533 7.53081 10.5189 11.3391 9.14847 6.92955 6.8726 6.5203 6.43963 5.9427 5.89467 5.03991 4.94488 9.21872 10.2262 6.37884 4.81545 4.4437 5.70986 5.22876
threshold=1.0000000180025095e-35 1.5000000000000002 3.5000000000000004 1.0000000180025095e-35 3.5000000000000004 12.500000000000002 9.5000000000000018 1.0000000180025095e-35 1.0000000180025095e-35 10.500000000000002 12.500000000000002 1.0000000180025095e-35 -1.4999999999999998 1.0000000180025095e-35 1.0000000180025095e-35 1.0000000180025095e-35 2.5000000000000004 3.5000000000000004 1.0000000180025095e-35 1.0000000180025095e-35 2.5000000000000004 7.5000000000000009 1.0000000180025095e-35 3.5000000000000004 10.500000000000002 5.5000000000000009 1.0000000180025095e-35 13.500000000000002 5.5000000000000009 1.0000000180025095e-35
decision_type=2 2 2 2 2 2 2 2 2 2 2 2 2 2 2 2 2 2 2 2 2 2 2 2 2 2 2 2 2 2
left_child=1 5 3 7 27 6 11 8 22 -8 -9 12 -1 26 15 16 -15 -4 -2 -6 -16 -18 23 -3 25 -25 -14 28 29 -5
right_child=18 2 17 4 19 -7 9 10 -10 -11 -12 -13 13 14 20 -17 21 -19 -20 -21 -22 -23 -24 24 -26 -27 -28 -29 -30 -31
leaf_value=0.033515728519097177 -0.0305556274499738 -0.0027099306557906277 0.020017419411013204 0.0010944996279761547 0.037116567727618378 0.020409266287310563 -0.018094895749178497 -0.013678195588321054 -0.025815756794941028 0.0061287536641374167 -0.043377770199574728 -0.02207636948048694 -0.011008885362134038 0.044365505996918193 -0.023678526329467656 0.0033739326289058502 0.014093916171925611 0.0077696452008178896 -0.0018834819083419347 0.0081390472379190906 0.0088835376645171483 0.032487721643813972 -0.018572486123178428 0.013542042750597076 -0.0027812771938579561 0.060311975501690193 0.00934488545445308 -0.019481259971657939 0.0070451366500900734 -0.017635579047337147
leaf_weight=32.559966817498207 54.792266175150871 266.92505624890327 91.308834537863731 78.019678145647049 37.924873724579811 152.67273347079754 47.762439355254173 113.89418703317642 31.762983918190002 74.252642408013344 16.179856210947037 9.7194676101207715 48.777816638350487 17.13199120759964 14.438443154096602 47.329233884811401 124.42859670519829 294.02174039185047 16.341049194335938 16.92369519174099 20.116156905889511 29.863614156842232 23.96209342777729 9.9688121974468249 19.138508915901184 9.2223325073719007 28.763144165277481 14.721389487385748 166.70394818484783 33.278340175747871
leaf_count=112 267 1029 326 282 130 544 178 470 131 267 70 38 183 58 55 171 441 1050 64 60 73 102 95 36 73 31 105 55 603 124
internal_value=0.00391001 0.00498625 0.00199571 -0.00201917 0.00558804 0.0106247 0.00757264 -0.00740402 -0.00366432 -0.00342353 -0.0176753 0.011168 0.0121153 0.00991452 0.0139987 0.0170098 0.0207332 0.0107162 -0.0240864 0.0284813 -0.00500564 0.0178404 -0.00145543 -5.5509e-05 0.0180286 0.0378913 -0.00343598 0.00121609 0.002378 -0.00461301
internal_weight=1942.91 1871.77 1223.96 838.626 347.572 647.816 495.144 491.054 360.98 122.015 130.074 373.128 363.409 330.849 253.308 218.753 171.424 385.331 71.1333 54.8486 34.5546 154.292 329.217 305.255 38.3297 19.1911 77.541 292.723 278.002 111.298
internal_count=7223 6892 4565 3189 1254 2327 1783 1935 1395 445 540 1338 1300 1188 900 772 601 1376 331 190 128 543 1264 1169 140 67 288 1064 1009 406
is_linear=0
shrinkage=0.04


Tree=23
num_leaves=31
num_cat=0
split_feature=20 20 20 7 20 0 0 6 20 20 7 7 0 0 19 0 19 20 20 20 20 20 9 17 0 20 20 0 20 20
split_gain=48.7564 39.5206 21.6647 19.5593 17.8466 17.3759 16.4901 18.914 16.3803 15.8461 15.7275 14.5855 15.0505 11.1609 10.7329 11.0065 10.2782 10.047 9.9065 8.78693 22.5858 10.7452 10.4069 15.8478 9.71591 8.61584 16.0147 7.55202 9.40385 13.9602
threshold=2.9415400096431843 3.3252677420051766 -0.58072173407164929 1.0000000180025095e-35 -0.26071583477660748 11.500000000000002 15.500000000000002 1.0000000180025095e-35 2.3040838444919243 -0.18452560750339392 1.0000000180025095e-35 1.0000000180025095e-35 1.0000000180025095e-35 1.0000000180025095e-35 1.0000000180025095e-35 13.500000000000002 1.0000000180025095e-35 -0.089927101607906165 3.2037616717135085 0.64971421404911445 0.55816061122444161 1.7825501764660461 1.0000000180025095e-35 3.5000000000000004 12.500000000000002 5.453635351590381 5.7167118554774383 9.5000000000000018 0.70556665223340476 0.97831905620514459
decision_type=2 2 2 2 2 2 2 2 2 2 2 2 2 2 2 2 2 2 2 2 2 2 2 2 2 2 2 2 2 2
left_child=2 5 3 -1 -4 18 7 9 -8 -6 16 17 -13 -12 15 -7 25 -11 -2 20 -19 24 23 -23 27 -3 -27 -21 -29 -30
right_child=1 10 4 -5 6 14 8 -9 -10 11 13 12 -14 -15 -16 -17 -18 19 -20 21 -22 22 -24 -25 -26 26 -28 28 29 -31
leaf_value=-1.5075496507035941e-05 -0.016777620403100216 -0.0021020821521140704 0.030880188235301368 -0.052549098002240668 -0.030823768004095951 -0.03111485594179101 0.045071098578265273 0.022982474105431094 -0.012690588443151693 0.037369070733916189 0.0028643546970349349 0.0055586483660861391 0.035128403470991033 0.047874553520000855 0.021583261961736259 0.019052024805232971 0.011303054213755648 0.0015272593538815935 -0.038474273576467051 0.017507410748064361 -0.044676717167285204 0.00097467381742095472 0.022693576729011022 -0.044626090366059475 0.033702009122849153 -0.056961808155793221 -0.00025902294322500806 0.041444218149339983 -0.021659013451853285 0.0091162604596829889
leaf_weight=235.76889537274837 69.401946067810059 285.46283023059368 64.378871276974678 10.912388727068899 17.318664625287056 20.848809093236927 35.241329550743103 119.28326064348221 9.5476024746894819 13.770395904779432 16.852196410298347 55.856864899396896 54.200363099575043 17.79711751639843 20.110201925039291 9.4908812344074232 84.157525464892387 119.97675508260727 69.829673007130623 98.812314793467522 18.69721619784832 274.1474506855011 31.929674416780472 11.759996458888052 29.630045011639595 12.605518355965616 19.260673046112061 8.0792668014764768 34.082799449563026 70.959491178393364
leaf_count=865 295 1106 221 44 65 87 127 413 36 46 63 199 186 59 70 34 296 429 344 347 72 1014 111 49 102 59 76 27 128 253
internal_value=0.00376027 -0.00542335 0.00813376 -0.00254179 0.0106004 -0.0206135 0.00926962 0.00813944 0.0327499 0.00600488 0.00121511 0.00681743 0.0203062 0.0266776 -0.000472751 -0.0153144 -0.00104319 0.00470639 -0.027856 0.00400955 -0.00497762 0.00624235 0.00139897 -0.00104999 0.012583 -0.00434271 -0.02374 0.00948595 0.00238715 -0.000979396
internal_weight=1940.17 625.817 1314.35 246.681 1067.67 189.682 1003.29 958.505 44.7889 839.221 436.136 821.903 110.057 34.6493 50.4499 30.3397 401.487 711.845 139.232 698.075 138.674 559.401 317.837 285.907 241.564 317.329 31.8662 211.934 113.122 105.042
internal_count=7223 2489 4734 909 3825 830 3604 3441 163 3028 1659 2963 385 122 191 121 1537 2578 639 2532 501 2031 1174 1063 857 1241 135 755 408 381
is_linear=0
shrinkage=0.04


Tree=24
num_leaves=31
num_cat=0
split_feature=20 20 1 11 0 7 0 1 6 0 16 0 1 1 4 20 7 0 1 20 1 10 0 1 10 1 0 16 0 16
split_gain=45.0699 36.8387 22.4725 18.6835 16.3214 14.5915 12.6328 12.9754 12.0538 10.4013 9.94141 10.4646 9.66454 13.8855 10.603 9.52806 8.90278 15.4797 11.7294 14.3774 12.3537 11.5578 11.9848 9.44471 8.37237 16.7446 8.75729 7.65403 15.7273 7.59053
threshold=2.9415400096431843 3.3252677420051766 0.23950000000000002 1.0000000180025095e-35 11.500000000000002 1.0000000180025095e-35 15.500000000000002 10.065000000000003 1.0000000180025095e-35 1.0000000180025095e-35 3.5000000000000004 12.500000000000002 233.62000000000003 303.91000000000003 1.0000000180025095e-35 3.2037616717135085 1.0000000180025095e-35 1.0000000180025095e-35 0.77050000000000007 -0.18452560750339392 0.57050000000000012 1.0000000180025095e-35 6.5000000000000009 0.94550000000000012 1.0000000180025095e-35 0.28250000000000003 5.5000000000000009 1.5000000000000002 10.500000000000002 3.5000000000000004
decision_type=2 2 2 2 2 2 2 2 2 2 2 2 2 2 2 2 2 2 2 2 2 2 2 2 2 2 2 2 2 2
left_child=2 4 -1 6 15 12 8 -8 16 -7 11 -6 29 -14 -15 -2 18 -18 20 -20 24 22 -21 -24 25 -4 -27 28 -25 -3
right_child=1 5 3 -5 10 9 7 -9 -10 -11 -12 -13 13 14 -16 -17 17 -19 19 21 -22 -23 23 27 -26 26 -28 -29 -30 -31
leaf_value=-0.0062775759449750605 -0.016196158593771437 -0.0020190186007620486 0.050196007448528368 -0.045603153467393368 -0.036428030925057364 0.0027552895433004278 0.038033243349418849 -0.012246796972051293 0.020507103834860669 0.04624121114412124 0.02075431734514261 0.0094959196311031856 -0.047628880449359798 0.024800358277055512 -0.028591879510843569 -0.037577595811615551 0.004130906126497004 0.031683718963601615 -0.033053546209177928 0.015604159605636433 0.03683697493216434 -0.014079932701988549 0.033083792102714539 -0.0078172114896449627 0.03514864452163461 -0.03883282525104588 0.001232463558506923 -0.00080291815019303901 0.021529952719079849 0.01198660374707318
leaf_weight=158.31314238905907 69.060763731598854 285.36190710961819 8.5509027540683729 8.7042392790317518 15.704276233911516 16.857963740825653 44.092874690890312 9.5343486517667753 133.40923237800598 17.725460305809975 20.116674363613129 14.498430475592611 15.619672909379004 12.200803801417351 9.8367216885089874 68.683376669883728 68.384755775332451 62.001726686954498 15.158829987049101 169.80056655406952 36.880997970700264 45.917486399412155 15.447518140077589 45.633819565176964 13.996694877743719 10.161816343665121 39.781910642981529 348.46139132976532 78.192009955644608 78.001136869192123
leaf_count=595 295 1106 28 37 68 63 161 36 464 59 70 53 71 46 40 344 244 215 57 598 125 172 52 165 47 39 142 1284 273 274
internal_value=0.00361845 -0.00522915 0.00782363 0.0097617 -0.0199738 0.00116775 0.0102218 0.0290334 0.00927211 0.0257168 -0.000449535 -0.014785 -0.00100803 -0.020023 0.000761472 -0.0270516 0.00768841 0.0173743 0.006144 0.00427246 0.0182905 0.00512258 0.00648289 0.00328197 0.00848193 0.00161753 -0.00752168 0.00223937 0.0107386 0.00101214
internal_weight=1936.09 623.667 1312.42 1154.11 188.064 435.604 1145.41 53.6272 1091.78 34.5834 50.3194 30.2027 401.02 37.6572 22.0375 137.744 958.37 130.386 827.984 718.612 109.372 703.453 657.535 487.735 72.4913 58.4946 49.9437 472.287 123.826 363.363
internal_count=7223 2489 4734 4139 830 1659 4102 197 3905 122 191 121 1537 157 86 639 3441 459 2982 2601 381 2544 2372 1774 256 209 181 1722 438 1380
is_linear=0
shrinkage=0.04


Tree=25
num_leaves=31
num_cat=0
split_feature=20 20 1 1 6 16 16 5 7 16 20 11 17 1 20 16 1 1 5 1 1 1 1 1 20 8 20 9 1 1
split_gain=42.1639 26.7612 16.4564 14.1176 12.9545 11.8054 11.7698 12.1653 10.8649 15.8942 10.2347 9.0033 8.91644 8.49141 13.2701 10.6098 12.9319 8.9438 8.03276 16.7263 8.42262 7.98805 7.82012 20.2797 12.5108 7.70042 11.0299 7.59169 7.49921 7.1715
threshold=2.9415400096431843 3.3252677420051766 0.40650000000000003 28.610000000000003 1.0000000180025095e-35 3.5000000000000004 1.5000000000000002 1.0000000180025095e-35 1.0000000180025095e-35 1.5000000000000002 3.2037616717135085 1.0000000180025095e-35 3.5000000000000004 0.77050000000000007 -0.58072173407164929 3.5000000000000004 17.530000000000005 2.77 1.0000000180025095e-35 26.135000000000002 25.909000000000002 3.6275000000000004 41.085000000000008 38.015000000000008 3.5389276024864746 1.0000000180025095e-35 3.0995290101041104 1.0000000180025095e-35 0.67725000000000013 206.94000000000003
decision_type=2 2 2 2 2 2 2 2 2 2 2 2 2 2 2 2 2 2 2 2 2 2 2 2 2 2 2 2 2 2
left_child=2 10 -1 -3 8 6 7 29 9 28 11 25 -10 14 -11 16 -15 -17 20 -20 -12 -19 23 24 -8 26 -2 -23 -4 -5
right_child=1 3 4 5 -6 -7 22 -9 12 13 18 -13 -14 15 -16 17 -18 21 19 -21 -22 27 -24 -25 -26 -27 -28 -29 -30 -31
leaf_value=-0.0034941379595194743 -0.013535351280336942 0.036226527228296772 0.035777476296633311 0.00067354019111648487 0.021125355202122779 0.011449034384835957 0.0046745200609766462 0.024155531563196591 0.014964488679526471 -0.010372493916955645 -0.043772509647576556 -0.046411328099653898 0.054021453103981515 -0.0057037189781470243 0.030866176556103363 -0.0032478484425476836 0.028269818666051272 0.050224542316974582 0.026646715067744516 -0.039139222915310183 -0.014984119106334903 0.0080950969323239502 -0.016344809730554334 0.048659260312173123 -0.03707494750031505 -0.030784028614866933 0.019287017351538385 0.046099081406420023 0.011506716379063071 -0.033519721216067021
leaf_weight=195.9025054872036 33.246820896863937 15.429263725876806 21.410079076886177 91.70528282225132 125.62806405127048 87.333239555358887 31.970014050602913 34.645419850945473 123.3764416873455 18.400647416710854 46.804619356989861 7.8034528195857993 9.362387999892233 320.4214778393507 35.339947327971458 62.939469635486603 17.999760806560516 8.9006065428256971 11.510734274983408 11.260575279593466 26.869894728064537 83.325019970536232 138.95445767045021 10.568201333284376 16.75923952460289 12.744105547666548 30.418289676308632 8.464843809604643 265.90534557402134 9.9854099452495557
leaf_count=726 133 53 73 338 437 308 123 120 436 67 236 44 32 1199 122 226 65 29 43 53 125 297 580 37 70 59 112 28 951 41
internal_value=0.00307912 -0.00551377 0.00717346 -0.000153257 0.00907219 -0.00156614 -0.00498732 0.00404298 0.00750046 0.00581179 -0.0184186 -0.00808866 0.0181026 0.0018549 0.0168146 0.000223336 -0.00381879 0.00855572 -0.0272627 -0.00616287 -0.0336143 0.0158933 -0.0111865 0.000971786 -0.010141 -0.00362588 0.00220246 0.0120589 0.0134331 -0.00297775
internal_weight=1915.39 618.009 1297.38 437.351 1101.47 421.921 334.588 136.336 975.846 843.107 180.658 84.2127 132.739 555.792 53.7406 502.051 338.421 163.63 96.4458 22.7713 73.6745 100.69 198.252 59.2975 48.7293 76.4092 63.6651 91.7899 287.315 101.691
internal_count=7163 2475 4688 1670 3962 1617 1309 499 3525 3057 805 348 468 2033 189 1844 1264 580 457 96 361 354 810 230 193 304 245 325 1024 379
is_linear=0
shrinkage=0.04


Tree=26
num_leaves=31
num_cat=0
split_feature=20 20 20 20 10 5 10 16 17 16 20 20 20 16 7 20 20 11 20 8 16 16 20 20 20 20 20 20 16 20
split_gain=39.0505 25.0389 13.4239 14.4419 13.9329 16.7797 13.0675 12.92 11.9444 10.5893 10.6848 16.0562 15.4139 10.0936 9.64936 9.64688 8.69645 8.61894 8.27199 12.9299 12.2649 11.7733 11.573 11.7333 9.304 8.51992 8.4788 8.29337 8.221 10.4621
threshold=2.9415400096431843 3.3252677420051766 -0.58072173407164929 -0.327810104334612 1.0000000180025095e-35 1.0000000180025095e-35 1.0000000180025095e-35 3.5000000000000004 3.5000000000000004 1.5000000000000002 3.7156329534066237 3.6379807408332776 3.5389276024864746 1.5000000000000002 1.0000000180025095e-35 3.2037616717135085 0.18647095820130219 1.0000000180025095e-35 2.1938850546504738 1.0000000180025095e-35 1.5000000000000002 3.5000000000000004 1.4457411260900961 0.49163812832738901 2.327764321775915 1.6024127904226868 1.7825501764660461 2.0155692431591548 3.5000000000000004 0.97831905620514459
decision_type=2 2 2 2 2 2 2 2 2 2 2 2 2 2 2 2 2 2 2 2 2 2 2 2 2 2 2 2 2 2
left_child=2 15 6 -4 5 8 14 9 18 -3 11 12 -11 16 -1 17 -7 -2 19 20 27 -22 23 -21 -20 -23 -24 -5 -15 -30
right_child=1 7 3 4 -6 13 -8 -9 -10 10 -12 -13 -14 28 -16 -17 -18 -19 24 22 21 25 26 -25 -26 -27 -28 -29 29 -31
leaf_value=-0.0042508696303822178 -0.0035041915879115803 0.0045606815830528747 0.029869696464455406 0.02247239440919532 -0.013617517456333657 -0.019665554337073926 0.017313044202248655 0.013214584360932074 0.034040171494139376 0.0095868503807972003 -0.015768844097431303 0.046513031433392076 -0.036017781173875371 -0.010097646150901435 -0.044271876351000827 -0.026526747676373072 0.015703507285369161 -0.045788111807346141 -0.013614426208912652 0.0065626957514014136 0.004762123449681274 0.015214311671996383 0.046008985306639882 -0.044632542992460923 0.0083469507081552156 0.043582041846333679 -0.0049106745800873621 0.056150751168418278 -0.010959741065501533 0.020604660900277696
leaf_weight=178.65541379153728 76.222623482346535 144.66575177013874 48.79202039539814 124.62911465764046 45.662946715950966 11.875753998756407 45.122252449393272 90.622339010238647 37.321326822042465 35.500831037759781 138.31832103431225 10.657838940620421 16.593824490904808 131.71176818013191 9.2144860625267011 95.286361187696457 86.460718542337418 7.6107912659645072 37.684504464268684 12.464354023337366 167.73345522582531 68.91202087700367 8.1406855583190936 15.15084061026573 152.49192659556866 22.462029859423637 11.837596550583838 12.620955035090445 28.704755693674088 37.939356982707977
leaf_count=661 304 529 170 444 171 44 160 319 132 135 580 37 70 505 37 457 305 44 142 44 599 241 27 58 550 76 43 43 105 131
internal_value=0.00296577 -0.00532437 0.00690514 0.00881021 0.00776823 0.00878992 -0.00178378 -0.000144787 0.012286 -0.00367448 -0.00959273 0.00405441 -0.00534446 0.000863074 -0.0064378 -0.0178717 0.0112771 -0.00783742 0.0109541 0.0139403 0.016302 0.0111097 -0.00565875 -0.0221033 0.00394673 0.0225841 0.017042 0.0259531 -0.00433045 0.0070483
internal_weight=1911.07 615.479 1295.59 1062.6 1013.8 968.141 232.992 436.359 671.449 345.737 201.071 62.7525 52.0947 296.692 187.87 179.12 98.3365 83.8334 634.127 443.951 396.358 259.108 47.5935 27.6152 190.176 91.3741 19.9783 137.25 198.356 66.6441
internal_count=7163 2475 4688 3830 3660 3489 858 1670 2399 1351 822 242 205 1090 698 805 349 348 2267 1575 1403 916 172 102 692 317 70 487 741 236
is_linear=0
shrinkage=0.04


Tree=27
num_leaves=31
num_cat=0
split_feature=20 20 1 0 1 0 1 16 0 16 0 0 1 7 0 16 0 16 0 1 1 20 16 1 16 1 1 20 0 1
split_gain=36.1278 23.3231 15.1463 13.0007 12.8607 12.2744 10.8999 10.0099 11.0602 10.0806 14.4491 19.8576 11.9042 8.85383 12.654 9.7049 8.45735 8.39141 9.34636 8.34138 14.8703 11.1324 7.65804 8.22857 7.53322 8.54961 12.4563 7.34597 10.9546 10.4552
threshold=2.9415400096431843 3.3252677420051766 0.065200000000000022 15.500000000000002 28.610000000000003 11.500000000000002 10.065000000000003 3.5000000000000004 1.5000000000000002 1.5000000000000002 13.500000000000002 12.500000000000002 69.270000000000024 1.0000000180025095e-35 1.0000000180025095e-35 1.5000000000000002 13.500000000000002 1.0000000180025095e-35 9.5000000000000018 151.60000000000005 71.165000000000006 4.0388316039754892 1.5000000000000002 25.005000000000006 1.5000000000000002 2.0450000000000004 5.035000000000001 4.5130548730344264 1.0000000180025095e-35 303.91000000000003
decision_type=2 2 2 2 2 2 2 2 2 2 2 2 2 2 2 2 2 2 2 2 2 2 2 2 2 2 2 2 2 2
left_child=2 5 -1 13 -3 22 -5 9 -9 10 11 17 -12 15 24 -4 -17 18 -6 20 21 -10 23 -2 -15 -26 -27 -11 -29 -30
right_child=1 4 3 6 7 -7 -8 8 19 27 12 -13 -14 14 -16 16 -18 -19 -20 -21 -22 -23 -24 -25 25 26 -28 28 29 -31
leaf_value=-0.010840840197362129 2.9569119986863331e-06 0.034584653407344262 0.011007813710844493 0.033268026656462925 0.0017783271889377128 -0.00073190579922610601 -0.013791407356023971 0.045241615981433995 -0.0031113760782939363 -0.0053728665909024169 -0.05007939130555214 0.054966776337953042 0.0056552874581648049 -0.01510621174504569 0.029047593297794449 0.003650910098517055 -0.01897309741957829 0.012115235966689581 -0.041281453608360393 0.028973977074074186 -0.039262302790819111 0.041302110253777863 -0.031765384949340919 -0.034311408125960549 0.039479290209542744 -0.027772840672443393 0.019553662098640835 0.023558880653364912 -0.039932819001280352 -0.00023736560391928493
leaf_weight=73.85128253698349 33.856954768300056 15.426626130938528 340.46374359726906 49.259690687060356 25.609462887048721 51.210006564855576 8.7647708207368833 11.589794188737867 35.281104385852814 139.29748474061489 12.177777886390688 12.626116693019865 11.124625757336615 20.926027819514275 64.470209836959839 659.189198538661 26.556021720170975 63.942339763045311 10.721512377262114 16.428415790200233 12.633625507354735 11.08041277527809 77.168739482760429 15.694647058844565 13.08060511946678 12.837012335658072 23.955255642533302 6.5952547192573538 36.135244384407997 14.883037403225897
leaf_count=289 140 53 1206 184 94 197 33 39 127 543 49 42 40 77 227 2396 100 232 42 57 48 37 390 78 44 48 84 28 179 60
internal_value=0.00285559 -0.00513318 0.00664599 0.00771298 -0.000138045 -0.0172916 0.0260463 -0.00149213 0.0105135 -0.00465023 0.00370147 0.00965075 -0.0243337 0.00677547 0.0163654 0.00549668 0.00274843 0.00345828 -0.0116943 0.00465492 -0.00248729 0.00815139 -0.0239255 -0.0113293 0.00457314 0.012965 0.00274325 -0.0104165 -0.0223114 -0.02858
internal_weight=1906.84 613.483 1293.35 1219.5 435.553 177.93 58.0245 420.126 87.0134 333.113 136.202 112.899 23.3024 1161.48 135.269 1026.21 685.745 100.273 36.331 75.4236 58.9951 46.3615 126.72 49.5516 70.7989 49.8729 36.7923 196.911 57.6135 51.0183
internal_count=7163 2475 4688 4399 1670 805 217 1617 308 1309 499 410 89 4182 480 3702 2496 368 136 269 212 164 608 218 253 176 132 810 267 239
is_linear=0
shrinkage=0.04


Tree=28
num_leaves=31
num_cat=0
split_feature=20 20 0 1 6 7 0 1 0 1 16 0 16 0 0 1 0 16 0 1 1 1 0 1 1 1 1 1 20 16
split_gain=33.3796 21.7531 14.0907 14.1034 12.8473 12.8435 12.4272 11.9172 11.5501 10.1982 9.30309 10.3869 9.33068 13.4227 18.6582 11.1456 8.93848 7.77826 8.0512 12.7134 9.55127 10.2062 8.21094 8.36995 9.50219 7.77293 7.76785 13.7461 10.3953 7.76751
threshold=2.9415400096431843 3.3252677420051766 15.500000000000002 0.15085000000000001 1.0000000180025095e-35 1.0000000180025095e-35 1.0000000180025095e-35 28.610000000000003 11.500000000000002 10.065000000000003 3.5000000000000004 1.5000000000000002 1.5000000000000002 13.500000000000002 12.500000000000002 69.270000000000024 2.5000000000000004 1.5000000000000002 10.500000000000002 0.43800000000000006 5.8250000000000002 9.7992500000000025 8.5000000000000018 4.6950000000000012 1.9150000000000003 17.530000000000005 151.60000000000005 71.165000000000006 4.0388316039754892 1.0000000180025095e-35
decision_type=2 2 2 2 2 2 2 2 2 2 2 2 2 2 2 2 2 2 2 2 2 2 2 2 2 2 2 2 2 2
left_child=2 8 3 -1 5 17 -7 -3 -2 -4 12 -12 13 14 29 -15 -6 18 22 -20 -21 -22 -5 24 -24 -19 27 28 -13 -9
right_child=1 7 9 4 16 6 -8 10 -10 -11 11 26 -14 15 -16 -17 -18 25 19 20 21 -23 23 -25 -26 -27 -28 -29 -30 -31
